<?xml version="1.0" encoding="UTF-8" standalone="yes"?>
<PMML xmlns="http://www.dmg.org/PMML-4_4" xmlns:data="http://jpmml.org/jpmml-model/InlineTable" version="4.4">
	<Header>
		<Application name="SkLearn2PMML package" version="0.110.0"/>
		<Timestamp>2024-08-08T09:57:54Z</Timestamp>
	</Header>
	<MiningBuildTask>
		<Extension name="repr">PMMLPipeline(steps=[('scaler', StandardScaler()),
       ('classifier', KNeighborsClassifier(n_neighbors=10))])</Extension>
	</MiningBuildTask>
	<DataDictionary>
		<DataField name="label" optype="categorical" dataType="integer">
			<Value value="0"/>
			<Value value="1"/>
		</DataField>
		<DataField name="src_port" optype="continuous" dataType="double"/>
		<DataField name="dst_port" optype="continuous" dataType="double"/>
		<DataField name="protocol" optype="continuous" dataType="double"/>
		<DataField name="length" optype="continuous" dataType="double"/>
	</DataDictionary>
	<NearestNeighborModel functionName="classification" algorithmName="sklearn.neighbors._classification.KNeighborsClassifier" numberOfNeighbors="10">
		<MiningSchema>
			<MiningField name="label" usageType="target"/>
			<MiningField name="src_port"/>
			<MiningField name="dst_port"/>
			<MiningField name="protocol"/>
			<MiningField name="length"/>
		</MiningSchema>
		<Output>
			<OutputField name="neighbor(1)" optype="categorical" dataType="string" feature="entityId"/>
			<OutputField name="neighbor(2)" optype="categorical" dataType="string" feature="entityId" rank="2"/>
			<OutputField name="neighbor(3)" optype="categorical" dataType="string" feature="entityId" rank="3"/>
			<OutputField name="neighbor(4)" optype="categorical" dataType="string" feature="entityId" rank="4"/>
			<OutputField name="neighbor(5)" optype="categorical" dataType="string" feature="entityId" rank="5"/>
			<OutputField name="neighbor(6)" optype="categorical" dataType="string" feature="entityId" rank="6"/>
			<OutputField name="neighbor(7)" optype="categorical" dataType="string" feature="entityId" rank="7"/>
			<OutputField name="neighbor(8)" optype="categorical" dataType="string" feature="entityId" rank="8"/>
			<OutputField name="neighbor(9)" optype="categorical" dataType="string" feature="entityId" rank="9"/>
			<OutputField name="neighbor(10)" optype="categorical" dataType="string" feature="entityId" rank="10"/>
		</Output>
		<LocalTransformations>
			<DerivedField name="standardScaler(src_port)" optype="continuous" dataType="double">
				<Apply function="/">
					<Apply function="-">
						<FieldRef field="src_port"/>
						<Constant dataType="double">49.67741935483871</Constant>
					</Apply>
					<Constant dataType="double">29.998265645323023</Constant>
				</Apply>
			</DerivedField>
			<DerivedField name="standardScaler(dst_port)" optype="continuous" dataType="double">
				<Apply function="/">
					<Apply function="-">
						<FieldRef field="dst_port"/>
						<Constant dataType="double">50.32258064516129</Constant>
					</Apply>
					<Constant dataType="double">29.998265645323023</Constant>
				</Apply>
			</DerivedField>
			<DerivedField name="standardScaler(protocol)" optype="continuous" dataType="double">
				<Apply function="-">
					<FieldRef field="protocol"/>
					<Constant dataType="double">6.0</Constant>
				</Apply>
			</DerivedField>
			<DerivedField name="standardScaler(length)" optype="continuous" dataType="double">
				<Apply function="-">
					<FieldRef field="length"/>
					<Constant dataType="double">74.0</Constant>
				</Apply>
			</DerivedField>
			<DerivedField name="float(standardScaler(src_port))" optype="continuous" dataType="float">
				<FieldRef field="standardScaler(src_port)"/>
			</DerivedField>
			<DerivedField name="float(standardScaler(dst_port))" optype="continuous" dataType="float">
				<FieldRef field="standardScaler(dst_port)"/>
			</DerivedField>
			<DerivedField name="float(standardScaler(protocol))" optype="continuous" dataType="float">
				<FieldRef field="standardScaler(protocol)"/>
			</DerivedField>
			<DerivedField name="float(standardScaler(length))" optype="continuous" dataType="float">
				<FieldRef field="standardScaler(length)"/>
			</DerivedField>
		</LocalTransformations>
		<TrainingInstances isTransformed="true">
			<InstanceFields>
				<InstanceField field="label" column="data:y"/>
				<InstanceField field="float(standardScaler(src_port))" column="data:x1"/>
				<InstanceField field="float(standardScaler(dst_port))" column="data:x2"/>
				<InstanceField field="float(standardScaler(protocol))" column="data:x3"/>
				<InstanceField field="float(standardScaler(length))" column="data:x4"/>
			</InstanceFields>
			<InlineTable>
				<row>
					<data:y>0</data:y>
					<data:x1>-0.9893045053244826</data:x1>
					<data:x2>0.9893045053244826</data:x2>
					<data:x3>0.0</data:x3>
					<data:x4>0.0</data:x4>
				</row>
				<row>
					<data:y>1</data:y>
					<data:x1>1.0108111250054495</data:x1>
					<data:x2>-1.0108111250054495</data:x2>
					<data:x3>0.0</data:x3>
					<data:x4>0.0</data:x4>
				</row>
				<row>
					<data:y>0</data:y>
					<data:x1>-0.9893045053244826</data:x1>
					<data:x2>0.9893045053244826</data:x2>
					<data:x3>0.0</data:x3>
					<data:x4>0.0</data:x4>
				</row>
				<row>
					<data:y>1</data:y>
					<data:x1>1.0108111250054495</data:x1>
					<data:x2>-1.0108111250054495</data:x2>
					<data:x3>0.0</data:x3>
					<data:x4>0.0</data:x4>
				</row>
				<row>
					<data:y>0</data:y>
					<data:x1>-0.9893045053244826</data:x1>
					<data:x2>0.9893045053244826</data:x2>
					<data:x3>0.0</data:x3>
					<data:x4>0.0</data:x4>
				</row>
				<row>
					<data:y>0</data:y>
					<data:x1>-0.9893045053244826</data:x1>
					<data:x2>0.9893045053244826</data:x2>
					<data:x3>0.0</data:x3>
					<data:x4>0.0</data:x4>
				</row>
				<row>
					<data:y>0</data:y>
					<data:x1>-0.9893045053244826</data:x1>
					<data:x2>0.9893045053244826</data:x2>
					<data:x3>0.0</data:x3>
					<data:x4>0.0</data:x4>
				</row>
				<row>
					<data:y>1</data:y>
					<data:x1>1.0108111250054495</data:x1>
					<data:x2>-1.0108111250054495</data:x2>
					<data:x3>0.0</data:x3>
					<data:x4>0.0</data:x4>
				</row>
				<row>
					<data:y>1</data:y>
					<data:x1>1.0108111250054495</data:x1>
					<data:x2>-1.0108111250054495</data:x2>
					<data:x3>0.0</data:x3>
					<data:x4>0.0</data:x4>
				</row>
				<row>
					<data:y>0</data:y>
					<data:x1>-0.9893045053244826</data:x1>
					<data:x2>0.9893045053244826</data:x2>
					<data:x3>0.0</data:x3>
					<data:x4>0.0</data:x4>
				</row>
				<row>
					<data:y>0</data:y>
					<data:x1>-0.9893045053244826</data:x1>
					<data:x2>0.9893045053244826</data:x2>
					<data:x3>0.0</data:x3>
					<data:x4>0.0</data:x4>
				</row>
				<row>
					<data:y>0</data:y>
					<data:x1>-0.9893045053244826</data:x1>
					<data:x2>0.9893045053244826</data:x2>
					<data:x3>0.0</data:x3>
					<data:x4>0.0</data:x4>
				</row>
				<row>
					<data:y>0</data:y>
					<data:x1>-0.9893045053244826</data:x1>
					<data:x2>0.9893045053244826</data:x2>
					<data:x3>0.0</data:x3>
					<data:x4>0.0</data:x4>
				</row>
				<row>
					<data:y>0</data:y>
					<data:x1>-0.9893045053244826</data:x1>
					<data:x2>0.9893045053244826</data:x2>
					<data:x3>0.0</data:x3>
					<data:x4>0.0</data:x4>
				</row>
				<row>
					<data:y>1</data:y>
					<data:x1>1.0108111250054495</data:x1>
					<data:x2>-1.0108111250054495</data:x2>
					<data:x3>0.0</data:x3>
					<data:x4>0.0</data:x4>
				</row>
				<row>
					<data:y>1</data:y>
					<data:x1>1.0108111250054495</data:x1>
					<data:x2>-1.0108111250054495</data:x2>
					<data:x3>0.0</data:x3>
					<data:x4>0.0</data:x4>
				</row>
				<row>
					<data:y>1</data:y>
					<data:x1>1.0108111250054495</data:x1>
					<data:x2>-1.0108111250054495</data:x2>
					<data:x3>0.0</data:x3>
					<data:x4>0.0</data:x4>
				</row>
				<row>
					<data:y>1</data:y>
					<data:x1>1.0108111250054495</data:x1>
					<data:x2>-1.0108111250054495</data:x2>
					<data:x3>0.0</data:x3>
					<data:x4>0.0</data:x4>
				</row>
				<row>
					<data:y>0</data:y>
					<data:x1>-0.9893045053244826</data:x1>
					<data:x2>0.9893045053244826</data:x2>
					<data:x3>0.0</data:x3>
					<data:x4>0.0</data:x4>
				</row>
				<row>
					<data:y>0</data:y>
					<data:x1>-0.9893045053244826</data:x1>
					<data:x2>0.9893045053244826</data:x2>
					<data:x3>0.0</data:x3>
					<data:x4>0.0</data:x4>
				</row>
				<row>
					<data:y>0</data:y>
					<data:x1>-0.9893045053244826</data:x1>
					<data:x2>0.9893045053244826</data:x2>
					<data:x3>0.0</data:x3>
					<data:x4>0.0</data:x4>
				</row>
				<row>
					<data:y>1</data:y>
					<data:x1>1.0108111250054495</data:x1>
					<data:x2>-1.0108111250054495</data:x2>
					<data:x3>0.0</data:x3>
					<data:x4>0.0</data:x4>
				</row>
				<row>
					<data:y>1</data:y>
					<data:x1>1.0108111250054495</data:x1>
					<data:x2>-1.0108111250054495</data:x2>
					<data:x3>0.0</data:x3>
					<data:x4>0.0</data:x4>
				</row>
				<row>
					<data:y>0</data:y>
					<data:x1>-0.9893045053244826</data:x1>
					<data:x2>0.9893045053244826</data:x2>
					<data:x3>0.0</data:x3>
					<data:x4>0.0</data:x4>
				</row>
				<row>
					<data:y>1</data:y>
					<data:x1>1.0108111250054495</data:x1>
					<data:x2>-1.0108111250054495</data:x2>
					<data:x3>0.0</data:x3>
					<data:x4>0.0</data:x4>
				</row>
				<row>
					<data:y>0</data:y>
					<data:x1>-0.9893045053244826</data:x1>
					<data:x2>0.9893045053244826</data:x2>
					<data:x3>0.0</data:x3>
					<data:x4>0.0</data:x4>
				</row>
				<row>
					<data:y>0</data:y>
					<data:x1>-0.9893045053244826</data:x1>
					<data:x2>0.9893045053244826</data:x2>
					<data:x3>0.0</data:x3>
					<data:x4>0.0</data:x4>
				</row>
				<row>
					<data:y>0</data:y>
					<data:x1>-0.9893045053244826</data:x1>
					<data:x2>0.9893045053244826</data:x2>
					<data:x3>0.0</data:x3>
					<data:x4>0.0</data:x4>
				</row>
				<row>
					<data:y>0</data:y>
					<data:x1>-0.9893045053244826</data:x1>
					<data:x2>0.9893045053244826</data:x2>
					<data:x3>0.0</data:x3>
					<data:x4>0.0</data:x4>
				</row>
				<row>
					<data:y>0</data:y>
					<data:x1>-0.9893045053244826</data:x1>
					<data:x2>0.9893045053244826</data:x2>
					<data:x3>0.0</data:x3>
					<data:x4>0.0</data:x4>
				</row>
				<row>
					<data:y>1</data:y>
					<data:x1>-0.9893045053244826</data:x1>
					<data:x2>0.9893045053244826</data:x2>
					<data:x3>0.0</data:x3>
					<data:x4>0.0</data:x4>
				</row>
				<row>
					<data:y>1</data:y>
					<data:x1>1.0108111250054495</data:x1>
					<data:x2>-1.0108111250054495</data:x2>
					<data:x3>0.0</data:x3>
					<data:x4>0.0</data:x4>
				</row>
				<row>
					<data:y>1</data:y>
					<data:x1>1.0108111250054495</data:x1>
					<data:x2>-1.0108111250054495</data:x2>
					<data:x3>0.0</data:x3>
					<data:x4>0.0</data:x4>
				</row>
				<row>
					<data:y>0</data:y>
					<data:x1>-0.9893045053244826</data:x1>
					<data:x2>0.9893045053244826</data:x2>
					<data:x3>0.0</data:x3>
					<data:x4>0.0</data:x4>
				</row>
				<row>
					<data:y>1</data:y>
					<data:x1>-0.9893045053244826</data:x1>
					<data:x2>0.9893045053244826</data:x2>
					<data:x3>0.0</data:x3>
					<data:x4>0.0</data:x4>
				</row>
				<row>
					<data:y>1</data:y>
					<data:x1>1.0108111250054495</data:x1>
					<data:x2>-1.0108111250054495</data:x2>
					<data:x3>0.0</data:x3>
					<data:x4>0.0</data:x4>
				</row>
				<row>
					<data:y>0</data:y>
					<data:x1>-0.9893045053244826</data:x1>
					<data:x2>0.9893045053244826</data:x2>
					<data:x3>0.0</data:x3>
					<data:x4>0.0</data:x4>
				</row>
				<row>
					<data:y>1</data:y>
					<data:x1>1.0108111250054495</data:x1>
					<data:x2>-1.0108111250054495</data:x2>
					<data:x3>0.0</data:x3>
					<data:x4>0.0</data:x4>
				</row>
				<row>
					<data:y>1</data:y>
					<data:x1>1.0108111250054495</data:x1>
					<data:x2>-1.0108111250054495</data:x2>
					<data:x3>0.0</data:x3>
					<data:x4>0.0</data:x4>
				</row>
				<row>
					<data:y>0</data:y>
					<data:x1>-0.9893045053244826</data:x1>
					<data:x2>0.9893045053244826</data:x2>
					<data:x3>0.0</data:x3>
					<data:x4>0.0</data:x4>
				</row>
				<row>
					<data:y>1</data:y>
					<data:x1>1.0108111250054495</data:x1>
					<data:x2>-1.0108111250054495</data:x2>
					<data:x3>0.0</data:x3>
					<data:x4>0.0</data:x4>
				</row>
				<row>
					<data:y>0</data:y>
					<data:x1>-0.9893045053244826</data:x1>
					<data:x2>0.9893045053244826</data:x2>
					<data:x3>0.0</data:x3>
					<data:x4>0.0</data:x4>
				</row>
				<row>
					<data:y>0</data:y>
					<data:x1>-0.9893045053244826</data:x1>
					<data:x2>0.9893045053244826</data:x2>
					<data:x3>0.0</data:x3>
					<data:x4>0.0</data:x4>
				</row>
				<row>
					<data:y>0</data:y>
					<data:x1>-0.9893045053244826</data:x1>
					<data:x2>0.9893045053244826</data:x2>
					<data:x3>0.0</data:x3>
					<data:x4>0.0</data:x4>
				</row>
				<row>
					<data:y>1</data:y>
					<data:x1>-0.9893045053244826</data:x1>
					<data:x2>0.9893045053244826</data:x2>
					<data:x3>0.0</data:x3>
					<data:x4>0.0</data:x4>
				</row>
				<row>
					<data:y>1</data:y>
					<data:x1>1.0108111250054495</data:x1>
					<data:x2>-1.0108111250054495</data:x2>
					<data:x3>0.0</data:x3>
					<data:x4>0.0</data:x4>
				</row>
				<row>
					<data:y>1</data:y>
					<data:x1>1.0108111250054495</data:x1>
					<data:x2>-1.0108111250054495</data:x2>
					<data:x3>0.0</data:x3>
					<data:x4>0.0</data:x4>
				</row>
				<row>
					<data:y>0</data:y>
					<data:x1>-0.9893045053244826</data:x1>
					<data:x2>0.9893045053244826</data:x2>
					<data:x3>0.0</data:x3>
					<data:x4>0.0</data:x4>
				</row>
				<row>
					<data:y>0</data:y>
					<data:x1>-0.9893045053244826</data:x1>
					<data:x2>0.9893045053244826</data:x2>
					<data:x3>0.0</data:x3>
					<data:x4>0.0</data:x4>
				</row>
				<row>
					<data:y>1</data:y>
					<data:x1>1.0108111250054495</data:x1>
					<data:x2>-1.0108111250054495</data:x2>
					<data:x3>0.0</data:x3>
					<data:x4>0.0</data:x4>
				</row>
				<row>
					<data:y>0</data:y>
					<data:x1>-0.9893045053244826</data:x1>
					<data:x2>0.9893045053244826</data:x2>
					<data:x3>0.0</data:x3>
					<data:x4>0.0</data:x4>
				</row>
				<row>
					<data:y>0</data:y>
					<data:x1>-0.9893045053244826</data:x1>
					<data:x2>0.9893045053244826</data:x2>
					<data:x3>0.0</data:x3>
					<data:x4>0.0</data:x4>
				</row>
				<row>
					<data:y>1</data:y>
					<data:x1>1.0108111250054495</data:x1>
					<data:x2>-1.0108111250054495</data:x2>
					<data:x3>0.0</data:x3>
					<data:x4>0.0</data:x4>
				</row>
				<row>
					<data:y>1</data:y>
					<data:x1>1.0108111250054495</data:x1>
					<data:x2>-1.0108111250054495</data:x2>
					<data:x3>0.0</data:x3>
					<data:x4>0.0</data:x4>
				</row>
				<row>
					<data:y>1</data:y>
					<data:x1>1.0108111250054495</data:x1>
					<data:x2>-1.0108111250054495</data:x2>
					<data:x3>0.0</data:x3>
					<data:x4>0.0</data:x4>
				</row>
				<row>
					<data:y>1</data:y>
					<data:x1>1.0108111250054495</data:x1>
					<data:x2>-1.0108111250054495</data:x2>
					<data:x3>0.0</data:x3>
					<data:x4>0.0</data:x4>
				</row>
				<row>
					<data:y>0</data:y>
					<data:x1>-0.9893045053244826</data:x1>
					<data:x2>0.9893045053244826</data:x2>
					<data:x3>0.0</data:x3>
					<data:x4>0.0</data:x4>
				</row>
				<row>
					<data:y>0</data:y>
					<data:x1>-0.9893045053244826</data:x1>
					<data:x2>0.9893045053244826</data:x2>
					<data:x3>0.0</data:x3>
					<data:x4>0.0</data:x4>
				</row>
				<row>
					<data:y>1</data:y>
					<data:x1>1.0108111250054495</data:x1>
					<data:x2>-1.0108111250054495</data:x2>
					<data:x3>0.0</data:x3>
					<data:x4>0.0</data:x4>
				</row>
				<row>
					<data:y>0</data:y>
					<data:x1>-0.9893045053244826</data:x1>
					<data:x2>0.9893045053244826</data:x2>
					<data:x3>0.0</data:x3>
					<data:x4>0.0</data:x4>
				</row>
				<row>
					<data:y>1</data:y>
					<data:x1>1.0108111250054495</data:x1>
					<data:x2>-1.0108111250054495</data:x2>
					<data:x3>0.0</data:x3>
					<data:x4>0.0</data:x4>
				</row>
				<row>
					<data:y>1</data:y>
					<data:x1>1.0108111250054495</data:x1>
					<data:x2>-1.0108111250054495</data:x2>
					<data:x3>0.0</data:x3>
					<data:x4>0.0</data:x4>
				</row>
				<row>
					<data:y>0</data:y>
					<data:x1>-0.9893045053244826</data:x1>
					<data:x2>0.9893045053244826</data:x2>
					<data:x3>0.0</data:x3>
					<data:x4>0.0</data:x4>
				</row>
				<row>
					<data:y>1</data:y>
					<data:x1>1.0108111250054495</data:x1>
					<data:x2>-1.0108111250054495</data:x2>
					<data:x3>0.0</data:x3>
					<data:x4>0.0</data:x4>
				</row>
				<row>
					<data:y>0</data:y>
					<data:x1>-0.9893045053244826</data:x1>
					<data:x2>0.9893045053244826</data:x2>
					<data:x3>0.0</data:x3>
					<data:x4>0.0</data:x4>
				</row>
				<row>
					<data:y>0</data:y>
					<data:x1>-0.9893045053244826</data:x1>
					<data:x2>0.9893045053244826</data:x2>
					<data:x3>0.0</data:x3>
					<data:x4>0.0</data:x4>
				</row>
				<row>
					<data:y>1</data:y>
					<data:x1>-0.9893045053244826</data:x1>
					<data:x2>0.9893045053244826</data:x2>
					<data:x3>0.0</data:x3>
					<data:x4>0.0</data:x4>
				</row>
				<row>
					<data:y>1</data:y>
					<data:x1>1.0108111250054495</data:x1>
					<data:x2>-1.0108111250054495</data:x2>
					<data:x3>0.0</data:x3>
					<data:x4>0.0</data:x4>
				</row>
				<row>
					<data:y>0</data:y>
					<data:x1>-0.9893045053244826</data:x1>
					<data:x2>0.9893045053244826</data:x2>
					<data:x3>0.0</data:x3>
					<data:x4>0.0</data:x4>
				</row>
				<row>
					<data:y>1</data:y>
					<data:x1>1.0108111250054495</data:x1>
					<data:x2>-1.0108111250054495</data:x2>
					<data:x3>0.0</data:x3>
					<data:x4>0.0</data:x4>
				</row>
				<row>
					<data:y>1</data:y>
					<data:x1>1.0108111250054495</data:x1>
					<data:x2>-1.0108111250054495</data:x2>
					<data:x3>0.0</data:x3>
					<data:x4>0.0</data:x4>
				</row>
				<row>
					<data:y>1</data:y>
					<data:x1>1.0108111250054495</data:x1>
					<data:x2>-1.0108111250054495</data:x2>
					<data:x3>0.0</data:x3>
					<data:x4>0.0</data:x4>
				</row>
				<row>
					<data:y>1</data:y>
					<data:x1>1.0108111250054495</data:x1>
					<data:x2>-1.0108111250054495</data:x2>
					<data:x3>0.0</data:x3>
					<data:x4>0.0</data:x4>
				</row>
				<row>
					<data:y>0</data:y>
					<data:x1>-0.9893045053244826</data:x1>
					<data:x2>0.9893045053244826</data:x2>
					<data:x3>0.0</data:x3>
					<data:x4>0.0</data:x4>
				</row>
				<row>
					<data:y>1</data:y>
					<data:x1>1.0108111250054495</data:x1>
					<data:x2>-1.0108111250054495</data:x2>
					<data:x3>0.0</data:x3>
					<data:x4>0.0</data:x4>
				</row>
				<row>
					<data:y>0</data:y>
					<data:x1>-0.9893045053244826</data:x1>
					<data:x2>0.9893045053244826</data:x2>
					<data:x3>0.0</data:x3>
					<data:x4>0.0</data:x4>
				</row>
				<row>
					<data:y>0</data:y>
					<data:x1>-0.9893045053244826</data:x1>
					<data:x2>0.9893045053244826</data:x2>
					<data:x3>0.0</data:x3>
					<data:x4>0.0</data:x4>
				</row>
				<row>
					<data:y>1</data:y>
					<data:x1>1.0108111250054495</data:x1>
					<data:x2>-1.0108111250054495</data:x2>
					<data:x3>0.0</data:x3>
					<data:x4>0.0</data:x4>
				</row>
				<row>
					<data:y>1</data:y>
					<data:x1>1.0108111250054495</data:x1>
					<data:x2>-1.0108111250054495</data:x2>
					<data:x3>0.0</data:x3>
					<data:x4>0.0</data:x4>
				</row>
				<row>
					<data:y>0</data:y>
					<data:x1>-0.9893045053244826</data:x1>
					<data:x2>0.9893045053244826</data:x2>
					<data:x3>0.0</data:x3>
					<data:x4>0.0</data:x4>
				</row>
				<row>
					<data:y>1</data:y>
					<data:x1>1.0108111250054495</data:x1>
					<data:x2>-1.0108111250054495</data:x2>
					<data:x3>0.0</data:x3>
					<data:x4>0.0</data:x4>
				</row>
				<row>
					<data:y>0</data:y>
					<data:x1>-0.9893045053244826</data:x1>
					<data:x2>0.9893045053244826</data:x2>
					<data:x3>0.0</data:x3>
					<data:x4>0.0</data:x4>
				</row>
				<row>
					<data:y>1</data:y>
					<data:x1>1.0108111250054495</data:x1>
					<data:x2>-1.0108111250054495</data:x2>
					<data:x3>0.0</data:x3>
					<data:x4>0.0</data:x4>
				</row>
				<row>
					<data:y>1</data:y>
					<data:x1>1.0108111250054495</data:x1>
					<data:x2>-1.0108111250054495</data:x2>
					<data:x3>0.0</data:x3>
					<data:x4>0.0</data:x4>
				</row>
				<row>
					<data:y>0</data:y>
					<data:x1>-0.9893045053244826</data:x1>
					<data:x2>0.9893045053244826</data:x2>
					<data:x3>0.0</data:x3>
					<data:x4>0.0</data:x4>
				</row>
				<row>
					<data:y>1</data:y>
					<data:x1>1.0108111250054495</data:x1>
					<data:x2>-1.0108111250054495</data:x2>
					<data:x3>0.0</data:x3>
					<data:x4>0.0</data:x4>
				</row>
				<row>
					<data:y>0</data:y>
					<data:x1>-0.9893045053244826</data:x1>
					<data:x2>0.9893045053244826</data:x2>
					<data:x3>0.0</data:x3>
					<data:x4>0.0</data:x4>
				</row>
				<row>
					<data:y>1</data:y>
					<data:x1>1.0108111250054495</data:x1>
					<data:x2>-1.0108111250054495</data:x2>
					<data:x3>0.0</data:x3>
					<data:x4>0.0</data:x4>
				</row>
				<row>
					<data:y>1</data:y>
					<data:x1>-0.9893045053244826</data:x1>
					<data:x2>0.9893045053244826</data:x2>
					<data:x3>0.0</data:x3>
					<data:x4>0.0</data:x4>
				</row>
				<row>
					<data:y>0</data:y>
					<data:x1>-0.9893045053244826</data:x1>
					<data:x2>0.9893045053244826</data:x2>
					<data:x3>0.0</data:x3>
					<data:x4>0.0</data:x4>
				</row>
				<row>
					<data:y>1</data:y>
					<data:x1>1.0108111250054495</data:x1>
					<data:x2>-1.0108111250054495</data:x2>
					<data:x3>0.0</data:x3>
					<data:x4>0.0</data:x4>
				</row>
				<row>
					<data:y>1</data:y>
					<data:x1>1.0108111250054495</data:x1>
					<data:x2>-1.0108111250054495</data:x2>
					<data:x3>0.0</data:x3>
					<data:x4>0.0</data:x4>
				</row>
				<row>
					<data:y>1</data:y>
					<data:x1>1.0108111250054495</data:x1>
					<data:x2>-1.0108111250054495</data:x2>
					<data:x3>0.0</data:x3>
					<data:x4>0.0</data:x4>
				</row>
				<row>
					<data:y>1</data:y>
					<data:x1>1.0108111250054495</data:x1>
					<data:x2>-1.0108111250054495</data:x2>
					<data:x3>0.0</data:x3>
					<data:x4>0.0</data:x4>
				</row>
				<row>
					<data:y>1</data:y>
					<data:x1>1.0108111250054495</data:x1>
					<data:x2>-1.0108111250054495</data:x2>
					<data:x3>0.0</data:x3>
					<data:x4>0.0</data:x4>
				</row>
				<row>
					<data:y>1</data:y>
					<data:x1>-0.9893045053244826</data:x1>
					<data:x2>0.9893045053244826</data:x2>
					<data:x3>0.0</data:x3>
					<data:x4>0.0</data:x4>
				</row>
				<row>
					<data:y>1</data:y>
					<data:x1>1.0108111250054495</data:x1>
					<data:x2>-1.0108111250054495</data:x2>
					<data:x3>0.0</data:x3>
					<data:x4>0.0</data:x4>
				</row>
				<row>
					<data:y>0</data:y>
					<data:x1>-0.9893045053244826</data:x1>
					<data:x2>0.9893045053244826</data:x2>
					<data:x3>0.0</data:x3>
					<data:x4>0.0</data:x4>
				</row>
				<row>
					<data:y>0</data:y>
					<data:x1>-0.9893045053244826</data:x1>
					<data:x2>0.9893045053244826</data:x2>
					<data:x3>0.0</data:x3>
					<data:x4>0.0</data:x4>
				</row>
				<row>
					<data:y>1</data:y>
					<data:x1>1.0108111250054495</data:x1>
					<data:x2>-1.0108111250054495</data:x2>
					<data:x3>0.0</data:x3>
					<data:x4>0.0</data:x4>
				</row>
				<row>
					<data:y>1</data:y>
					<data:x1>1.0108111250054495</data:x1>
					<data:x2>-1.0108111250054495</data:x2>
					<data:x3>0.0</data:x3>
					<data:x4>0.0</data:x4>
				</row>
				<row>
					<data:y>0</data:y>
					<data:x1>-0.9893045053244826</data:x1>
					<data:x2>0.9893045053244826</data:x2>
					<data:x3>0.0</data:x3>
					<data:x4>0.0</data:x4>
				</row>
				<row>
					<data:y>1</data:y>
					<data:x1>1.0108111250054495</data:x1>
					<data:x2>-1.0108111250054495</data:x2>
					<data:x3>0.0</data:x3>
					<data:x4>0.0</data:x4>
				</row>
				<row>
					<data:y>0</data:y>
					<data:x1>-0.9893045053244826</data:x1>
					<data:x2>0.9893045053244826</data:x2>
					<data:x3>0.0</data:x3>
					<data:x4>0.0</data:x4>
				</row>
				<row>
					<data:y>0</data:y>
					<data:x1>-0.9893045053244826</data:x1>
					<data:x2>0.9893045053244826</data:x2>
					<data:x3>0.0</data:x3>
					<data:x4>0.0</data:x4>
				</row>
				<row>
					<data:y>1</data:y>
					<data:x1>1.0108111250054495</data:x1>
					<data:x2>-1.0108111250054495</data:x2>
					<data:x3>0.0</data:x3>
					<data:x4>0.0</data:x4>
				</row>
				<row>
					<data:y>1</data:y>
					<data:x1>1.0108111250054495</data:x1>
					<data:x2>-1.0108111250054495</data:x2>
					<data:x3>0.0</data:x3>
					<data:x4>0.0</data:x4>
				</row>
				<row>
					<data:y>1</data:y>
					<data:x1>1.0108111250054495</data:x1>
					<data:x2>-1.0108111250054495</data:x2>
					<data:x3>0.0</data:x3>
					<data:x4>0.0</data:x4>
				</row>
				<row>
					<data:y>1</data:y>
					<data:x1>1.0108111250054495</data:x1>
					<data:x2>-1.0108111250054495</data:x2>
					<data:x3>0.0</data:x3>
					<data:x4>0.0</data:x4>
				</row>
				<row>
					<data:y>1</data:y>
					<data:x1>1.0108111250054495</data:x1>
					<data:x2>-1.0108111250054495</data:x2>
					<data:x3>0.0</data:x3>
					<data:x4>0.0</data:x4>
				</row>
				<row>
					<data:y>0</data:y>
					<data:x1>-0.9893045053244826</data:x1>
					<data:x2>0.9893045053244826</data:x2>
					<data:x3>0.0</data:x3>
					<data:x4>0.0</data:x4>
				</row>
				<row>
					<data:y>1</data:y>
					<data:x1>1.0108111250054495</data:x1>
					<data:x2>-1.0108111250054495</data:x2>
					<data:x3>0.0</data:x3>
					<data:x4>0.0</data:x4>
				</row>
				<row>
					<data:y>1</data:y>
					<data:x1>1.0108111250054495</data:x1>
					<data:x2>-1.0108111250054495</data:x2>
					<data:x3>0.0</data:x3>
					<data:x4>0.0</data:x4>
				</row>
				<row>
					<data:y>1</data:y>
					<data:x1>1.0108111250054495</data:x1>
					<data:x2>-1.0108111250054495</data:x2>
					<data:x3>0.0</data:x3>
					<data:x4>0.0</data:x4>
				</row>
				<row>
					<data:y>1</data:y>
					<data:x1>1.0108111250054495</data:x1>
					<data:x2>-1.0108111250054495</data:x2>
					<data:x3>0.0</data:x3>
					<data:x4>0.0</data:x4>
				</row>
				<row>
					<data:y>0</data:y>
					<data:x1>-0.9893045053244826</data:x1>
					<data:x2>0.9893045053244826</data:x2>
					<data:x3>0.0</data:x3>
					<data:x4>0.0</data:x4>
				</row>
				<row>
					<data:y>0</data:y>
					<data:x1>-0.9893045053244826</data:x1>
					<data:x2>0.9893045053244826</data:x2>
					<data:x3>0.0</data:x3>
					<data:x4>0.0</data:x4>
				</row>
				<row>
					<data:y>1</data:y>
					<data:x1>1.0108111250054495</data:x1>
					<data:x2>-1.0108111250054495</data:x2>
					<data:x3>0.0</data:x3>
					<data:x4>0.0</data:x4>
				</row>
				<row>
					<data:y>1</data:y>
					<data:x1>1.0108111250054495</data:x1>
					<data:x2>-1.0108111250054495</data:x2>
					<data:x3>0.0</data:x3>
					<data:x4>0.0</data:x4>
				</row>
				<row>
					<data:y>0</data:y>
					<data:x1>-0.9893045053244826</data:x1>
					<data:x2>0.9893045053244826</data:x2>
					<data:x3>0.0</data:x3>
					<data:x4>0.0</data:x4>
				</row>
				<row>
					<data:y>1</data:y>
					<data:x1>1.0108111250054495</data:x1>
					<data:x2>-1.0108111250054495</data:x2>
					<data:x3>0.0</data:x3>
					<data:x4>0.0</data:x4>
				</row>
				<row>
					<data:y>0</data:y>
					<data:x1>-0.9893045053244826</data:x1>
					<data:x2>0.9893045053244826</data:x2>
					<data:x3>0.0</data:x3>
					<data:x4>0.0</data:x4>
				</row>
				<row>
					<data:y>1</data:y>
					<data:x1>1.0108111250054495</data:x1>
					<data:x2>-1.0108111250054495</data:x2>
					<data:x3>0.0</data:x3>
					<data:x4>0.0</data:x4>
				</row>
				<row>
					<data:y>1</data:y>
					<data:x1>1.0108111250054495</data:x1>
					<data:x2>-1.0108111250054495</data:x2>
					<data:x3>0.0</data:x3>
					<data:x4>0.0</data:x4>
				</row>
				<row>
					<data:y>0</data:y>
					<data:x1>-0.9893045053244826</data:x1>
					<data:x2>0.9893045053244826</data:x2>
					<data:x3>0.0</data:x3>
					<data:x4>0.0</data:x4>
				</row>
				<row>
					<data:y>0</data:y>
					<data:x1>-0.9893045053244826</data:x1>
					<data:x2>0.9893045053244826</data:x2>
					<data:x3>0.0</data:x3>
					<data:x4>0.0</data:x4>
				</row>
				<row>
					<data:y>1</data:y>
					<data:x1>1.0108111250054495</data:x1>
					<data:x2>-1.0108111250054495</data:x2>
					<data:x3>0.0</data:x3>
					<data:x4>0.0</data:x4>
				</row>
				<row>
					<data:y>0</data:y>
					<data:x1>-0.9893045053244826</data:x1>
					<data:x2>0.9893045053244826</data:x2>
					<data:x3>0.0</data:x3>
					<data:x4>0.0</data:x4>
				</row>
				<row>
					<data:y>0</data:y>
					<data:x1>-0.9893045053244826</data:x1>
					<data:x2>0.9893045053244826</data:x2>
					<data:x3>0.0</data:x3>
					<data:x4>0.0</data:x4>
				</row>
				<row>
					<data:y>0</data:y>
					<data:x1>-0.9893045053244826</data:x1>
					<data:x2>0.9893045053244826</data:x2>
					<data:x3>0.0</data:x3>
					<data:x4>0.0</data:x4>
				</row>
				<row>
					<data:y>1</data:y>
					<data:x1>1.0108111250054495</data:x1>
					<data:x2>-1.0108111250054495</data:x2>
					<data:x3>0.0</data:x3>
					<data:x4>0.0</data:x4>
				</row>
				<row>
					<data:y>1</data:y>
					<data:x1>1.0108111250054495</data:x1>
					<data:x2>-1.0108111250054495</data:x2>
					<data:x3>0.0</data:x3>
					<data:x4>0.0</data:x4>
				</row>
				<row>
					<data:y>1</data:y>
					<data:x1>1.0108111250054495</data:x1>
					<data:x2>-1.0108111250054495</data:x2>
					<data:x3>0.0</data:x3>
					<data:x4>0.0</data:x4>
				</row>
				<row>
					<data:y>1</data:y>
					<data:x1>1.0108111250054495</data:x1>
					<data:x2>-1.0108111250054495</data:x2>
					<data:x3>0.0</data:x3>
					<data:x4>0.0</data:x4>
				</row>
				<row>
					<data:y>0</data:y>
					<data:x1>-0.9893045053244826</data:x1>
					<data:x2>0.9893045053244826</data:x2>
					<data:x3>0.0</data:x3>
					<data:x4>0.0</data:x4>
				</row>
				<row>
					<data:y>0</data:y>
					<data:x1>-0.9893045053244826</data:x1>
					<data:x2>0.9893045053244826</data:x2>
					<data:x3>0.0</data:x3>
					<data:x4>0.0</data:x4>
				</row>
				<row>
					<data:y>1</data:y>
					<data:x1>-0.9893045053244826</data:x1>
					<data:x2>0.9893045053244826</data:x2>
					<data:x3>0.0</data:x3>
					<data:x4>0.0</data:x4>
				</row>
				<row>
					<data:y>0</data:y>
					<data:x1>-0.9893045053244826</data:x1>
					<data:x2>0.9893045053244826</data:x2>
					<data:x3>0.0</data:x3>
					<data:x4>0.0</data:x4>
				</row>
				<row>
					<data:y>1</data:y>
					<data:x1>1.0108111250054495</data:x1>
					<data:x2>-1.0108111250054495</data:x2>
					<data:x3>0.0</data:x3>
					<data:x4>0.0</data:x4>
				</row>
				<row>
					<data:y>1</data:y>
					<data:x1>1.0108111250054495</data:x1>
					<data:x2>-1.0108111250054495</data:x2>
					<data:x3>0.0</data:x3>
					<data:x4>0.0</data:x4>
				</row>
				<row>
					<data:y>0</data:y>
					<data:x1>-0.9893045053244826</data:x1>
					<data:x2>0.9893045053244826</data:x2>
					<data:x3>0.0</data:x3>
					<data:x4>0.0</data:x4>
				</row>
				<row>
					<data:y>0</data:y>
					<data:x1>-0.9893045053244826</data:x1>
					<data:x2>0.9893045053244826</data:x2>
					<data:x3>0.0</data:x3>
					<data:x4>0.0</data:x4>
				</row>
				<row>
					<data:y>0</data:y>
					<data:x1>-0.9893045053244826</data:x1>
					<data:x2>0.9893045053244826</data:x2>
					<data:x3>0.0</data:x3>
					<data:x4>0.0</data:x4>
				</row>
				<row>
					<data:y>1</data:y>
					<data:x1>-0.9893045053244826</data:x1>
					<data:x2>0.9893045053244826</data:x2>
					<data:x3>0.0</data:x3>
					<data:x4>0.0</data:x4>
				</row>
				<row>
					<data:y>1</data:y>
					<data:x1>1.0108111250054495</data:x1>
					<data:x2>-1.0108111250054495</data:x2>
					<data:x3>0.0</data:x3>
					<data:x4>0.0</data:x4>
				</row>
				<row>
					<data:y>0</data:y>
					<data:x1>-0.9893045053244826</data:x1>
					<data:x2>0.9893045053244826</data:x2>
					<data:x3>0.0</data:x3>
					<data:x4>0.0</data:x4>
				</row>
				<row>
					<data:y>1</data:y>
					<data:x1>1.0108111250054495</data:x1>
					<data:x2>-1.0108111250054495</data:x2>
					<data:x3>0.0</data:x3>
					<data:x4>0.0</data:x4>
				</row>
				<row>
					<data:y>0</data:y>
					<data:x1>-0.9893045053244826</data:x1>
					<data:x2>0.9893045053244826</data:x2>
					<data:x3>0.0</data:x3>
					<data:x4>0.0</data:x4>
				</row>
				<row>
					<data:y>0</data:y>
					<data:x1>-0.9893045053244826</data:x1>
					<data:x2>0.9893045053244826</data:x2>
					<data:x3>0.0</data:x3>
					<data:x4>0.0</data:x4>
				</row>
				<row>
					<data:y>0</data:y>
					<data:x1>-0.9893045053244826</data:x1>
					<data:x2>0.9893045053244826</data:x2>
					<data:x3>0.0</data:x3>
					<data:x4>0.0</data:x4>
				</row>
				<row>
					<data:y>1</data:y>
					<data:x1>-0.9893045053244826</data:x1>
					<data:x2>0.9893045053244826</data:x2>
					<data:x3>0.0</data:x3>
					<data:x4>0.0</data:x4>
				</row>
				<row>
					<data:y>0</data:y>
					<data:x1>-0.9893045053244826</data:x1>
					<data:x2>0.9893045053244826</data:x2>
					<data:x3>0.0</data:x3>
					<data:x4>0.0</data:x4>
				</row>
				<row>
					<data:y>0</data:y>
					<data:x1>-0.9893045053244826</data:x1>
					<data:x2>0.9893045053244826</data:x2>
					<data:x3>0.0</data:x3>
					<data:x4>0.0</data:x4>
				</row>
				<row>
					<data:y>1</data:y>
					<data:x1>1.0108111250054495</data:x1>
					<data:x2>-1.0108111250054495</data:x2>
					<data:x3>0.0</data:x3>
					<data:x4>0.0</data:x4>
				</row>
				<row>
					<data:y>0</data:y>
					<data:x1>-0.9893045053244826</data:x1>
					<data:x2>0.9893045053244826</data:x2>
					<data:x3>0.0</data:x3>
					<data:x4>0.0</data:x4>
				</row>
				<row>
					<data:y>1</data:y>
					<data:x1>1.0108111250054495</data:x1>
					<data:x2>-1.0108111250054495</data:x2>
					<data:x3>0.0</data:x3>
					<data:x4>0.0</data:x4>
				</row>
				<row>
					<data:y>1</data:y>
					<data:x1>1.0108111250054495</data:x1>
					<data:x2>-1.0108111250054495</data:x2>
					<data:x3>0.0</data:x3>
					<data:x4>0.0</data:x4>
				</row>
				<row>
					<data:y>1</data:y>
					<data:x1>1.0108111250054495</data:x1>
					<data:x2>-1.0108111250054495</data:x2>
					<data:x3>0.0</data:x3>
					<data:x4>0.0</data:x4>
				</row>
				<row>
					<data:y>0</data:y>
					<data:x1>-0.9893045053244826</data:x1>
					<data:x2>0.9893045053244826</data:x2>
					<data:x3>0.0</data:x3>
					<data:x4>0.0</data:x4>
				</row>
				<row>
					<data:y>1</data:y>
					<data:x1>1.0108111250054495</data:x1>
					<data:x2>-1.0108111250054495</data:x2>
					<data:x3>0.0</data:x3>
					<data:x4>0.0</data:x4>
				</row>
				<row>
					<data:y>0</data:y>
					<data:x1>-0.9893045053244826</data:x1>
					<data:x2>0.9893045053244826</data:x2>
					<data:x3>0.0</data:x3>
					<data:x4>0.0</data:x4>
				</row>
				<row>
					<data:y>1</data:y>
					<data:x1>-0.9893045053244826</data:x1>
					<data:x2>0.9893045053244826</data:x2>
					<data:x3>0.0</data:x3>
					<data:x4>0.0</data:x4>
				</row>
				<row>
					<data:y>1</data:y>
					<data:x1>1.0108111250054495</data:x1>
					<data:x2>-1.0108111250054495</data:x2>
					<data:x3>0.0</data:x3>
					<data:x4>0.0</data:x4>
				</row>
				<row>
					<data:y>0</data:y>
					<data:x1>-0.9893045053244826</data:x1>
					<data:x2>0.9893045053244826</data:x2>
					<data:x3>0.0</data:x3>
					<data:x4>0.0</data:x4>
				</row>
				<row>
					<data:y>0</data:y>
					<data:x1>-0.9893045053244826</data:x1>
					<data:x2>0.9893045053244826</data:x2>
					<data:x3>0.0</data:x3>
					<data:x4>0.0</data:x4>
				</row>
				<row>
					<data:y>1</data:y>
					<data:x1>1.0108111250054495</data:x1>
					<data:x2>-1.0108111250054495</data:x2>
					<data:x3>0.0</data:x3>
					<data:x4>0.0</data:x4>
				</row>
				<row>
					<data:y>1</data:y>
					<data:x1>1.0108111250054495</data:x1>
					<data:x2>-1.0108111250054495</data:x2>
					<data:x3>0.0</data:x3>
					<data:x4>0.0</data:x4>
				</row>
				<row>
					<data:y>1</data:y>
					<data:x1>1.0108111250054495</data:x1>
					<data:x2>-1.0108111250054495</data:x2>
					<data:x3>0.0</data:x3>
					<data:x4>0.0</data:x4>
				</row>
				<row>
					<data:y>0</data:y>
					<data:x1>-0.9893045053244826</data:x1>
					<data:x2>0.9893045053244826</data:x2>
					<data:x3>0.0</data:x3>
					<data:x4>0.0</data:x4>
				</row>
				<row>
					<data:y>1</data:y>
					<data:x1>1.0108111250054495</data:x1>
					<data:x2>-1.0108111250054495</data:x2>
					<data:x3>0.0</data:x3>
					<data:x4>0.0</data:x4>
				</row>
				<row>
					<data:y>1</data:y>
					<data:x1>1.0108111250054495</data:x1>
					<data:x2>-1.0108111250054495</data:x2>
					<data:x3>0.0</data:x3>
					<data:x4>0.0</data:x4>
				</row>
				<row>
					<data:y>0</data:y>
					<data:x1>-0.9893045053244826</data:x1>
					<data:x2>0.9893045053244826</data:x2>
					<data:x3>0.0</data:x3>
					<data:x4>0.0</data:x4>
				</row>
				<row>
					<data:y>1</data:y>
					<data:x1>1.0108111250054495</data:x1>
					<data:x2>-1.0108111250054495</data:x2>
					<data:x3>0.0</data:x3>
					<data:x4>0.0</data:x4>
				</row>
				<row>
					<data:y>1</data:y>
					<data:x1>-0.9893045053244826</data:x1>
					<data:x2>0.9893045053244826</data:x2>
					<data:x3>0.0</data:x3>
					<data:x4>0.0</data:x4>
				</row>
				<row>
					<data:y>1</data:y>
					<data:x1>1.0108111250054495</data:x1>
					<data:x2>-1.0108111250054495</data:x2>
					<data:x3>0.0</data:x3>
					<data:x4>0.0</data:x4>
				</row>
				<row>
					<data:y>0</data:y>
					<data:x1>-0.9893045053244826</data:x1>
					<data:x2>0.9893045053244826</data:x2>
					<data:x3>0.0</data:x3>
					<data:x4>0.0</data:x4>
				</row>
				<row>
					<data:y>0</data:y>
					<data:x1>-0.9893045053244826</data:x1>
					<data:x2>0.9893045053244826</data:x2>
					<data:x3>0.0</data:x3>
					<data:x4>0.0</data:x4>
				</row>
				<row>
					<data:y>1</data:y>
					<data:x1>-0.9893045053244826</data:x1>
					<data:x2>0.9893045053244826</data:x2>
					<data:x3>0.0</data:x3>
					<data:x4>0.0</data:x4>
				</row>
				<row>
					<data:y>0</data:y>
					<data:x1>-0.9893045053244826</data:x1>
					<data:x2>0.9893045053244826</data:x2>
					<data:x3>0.0</data:x3>
					<data:x4>0.0</data:x4>
				</row>
				<row>
					<data:y>1</data:y>
					<data:x1>1.0108111250054495</data:x1>
					<data:x2>-1.0108111250054495</data:x2>
					<data:x3>0.0</data:x3>
					<data:x4>0.0</data:x4>
				</row>
				<row>
					<data:y>0</data:y>
					<data:x1>-0.9893045053244826</data:x1>
					<data:x2>0.9893045053244826</data:x2>
					<data:x3>0.0</data:x3>
					<data:x4>0.0</data:x4>
				</row>
				<row>
					<data:y>1</data:y>
					<data:x1>1.0108111250054495</data:x1>
					<data:x2>-1.0108111250054495</data:x2>
					<data:x3>0.0</data:x3>
					<data:x4>0.0</data:x4>
				</row>
				<row>
					<data:y>1</data:y>
					<data:x1>1.0108111250054495</data:x1>
					<data:x2>-1.0108111250054495</data:x2>
					<data:x3>0.0</data:x3>
					<data:x4>0.0</data:x4>
				</row>
				<row>
					<data:y>0</data:y>
					<data:x1>-0.9893045053244826</data:x1>
					<data:x2>0.9893045053244826</data:x2>
					<data:x3>0.0</data:x3>
					<data:x4>0.0</data:x4>
				</row>
				<row>
					<data:y>0</data:y>
					<data:x1>-0.9893045053244826</data:x1>
					<data:x2>0.9893045053244826</data:x2>
					<data:x3>0.0</data:x3>
					<data:x4>0.0</data:x4>
				</row>
				<row>
					<data:y>0</data:y>
					<data:x1>-0.9893045053244826</data:x1>
					<data:x2>0.9893045053244826</data:x2>
					<data:x3>0.0</data:x3>
					<data:x4>0.0</data:x4>
				</row>
				<row>
					<data:y>1</data:y>
					<data:x1>1.0108111250054495</data:x1>
					<data:x2>-1.0108111250054495</data:x2>
					<data:x3>0.0</data:x3>
					<data:x4>0.0</data:x4>
				</row>
				<row>
					<data:y>0</data:y>
					<data:x1>-0.9893045053244826</data:x1>
					<data:x2>0.9893045053244826</data:x2>
					<data:x3>0.0</data:x3>
					<data:x4>0.0</data:x4>
				</row>
				<row>
					<data:y>1</data:y>
					<data:x1>1.0108111250054495</data:x1>
					<data:x2>-1.0108111250054495</data:x2>
					<data:x3>0.0</data:x3>
					<data:x4>0.0</data:x4>
				</row>
				<row>
					<data:y>0</data:y>
					<data:x1>-0.9893045053244826</data:x1>
					<data:x2>0.9893045053244826</data:x2>
					<data:x3>0.0</data:x3>
					<data:x4>0.0</data:x4>
				</row>
				<row>
					<data:y>1</data:y>
					<data:x1>1.0108111250054495</data:x1>
					<data:x2>-1.0108111250054495</data:x2>
					<data:x3>0.0</data:x3>
					<data:x4>0.0</data:x4>
				</row>
				<row>
					<data:y>1</data:y>
					<data:x1>1.0108111250054495</data:x1>
					<data:x2>-1.0108111250054495</data:x2>
					<data:x3>0.0</data:x3>
					<data:x4>0.0</data:x4>
				</row>
				<row>
					<data:y>0</data:y>
					<data:x1>-0.9893045053244826</data:x1>
					<data:x2>0.9893045053244826</data:x2>
					<data:x3>0.0</data:x3>
					<data:x4>0.0</data:x4>
				</row>
				<row>
					<data:y>1</data:y>
					<data:x1>1.0108111250054495</data:x1>
					<data:x2>-1.0108111250054495</data:x2>
					<data:x3>0.0</data:x3>
					<data:x4>0.0</data:x4>
				</row>
				<row>
					<data:y>1</data:y>
					<data:x1>1.0108111250054495</data:x1>
					<data:x2>-1.0108111250054495</data:x2>
					<data:x3>0.0</data:x3>
					<data:x4>0.0</data:x4>
				</row>
				<row>
					<data:y>1</data:y>
					<data:x1>1.0108111250054495</data:x1>
					<data:x2>-1.0108111250054495</data:x2>
					<data:x3>0.0</data:x3>
					<data:x4>0.0</data:x4>
				</row>
				<row>
					<data:y>1</data:y>
					<data:x1>1.0108111250054495</data:x1>
					<data:x2>-1.0108111250054495</data:x2>
					<data:x3>0.0</data:x3>
					<data:x4>0.0</data:x4>
				</row>
				<row>
					<data:y>0</data:y>
					<data:x1>-0.9893045053244826</data:x1>
					<data:x2>0.9893045053244826</data:x2>
					<data:x3>0.0</data:x3>
					<data:x4>0.0</data:x4>
				</row>
				<row>
					<data:y>0</data:y>
					<data:x1>-0.9893045053244826</data:x1>
					<data:x2>0.9893045053244826</data:x2>
					<data:x3>0.0</data:x3>
					<data:x4>0.0</data:x4>
				</row>
				<row>
					<data:y>0</data:y>
					<data:x1>-0.9893045053244826</data:x1>
					<data:x2>0.9893045053244826</data:x2>
					<data:x3>0.0</data:x3>
					<data:x4>0.0</data:x4>
				</row>
				<row>
					<data:y>0</data:y>
					<data:x1>-0.9893045053244826</data:x1>
					<data:x2>0.9893045053244826</data:x2>
					<data:x3>0.0</data:x3>
					<data:x4>0.0</data:x4>
				</row>
				<row>
					<data:y>0</data:y>
					<data:x1>-0.9893045053244826</data:x1>
					<data:x2>0.9893045053244826</data:x2>
					<data:x3>0.0</data:x3>
					<data:x4>0.0</data:x4>
				</row>
				<row>
					<data:y>0</data:y>
					<data:x1>-0.9893045053244826</data:x1>
					<data:x2>0.9893045053244826</data:x2>
					<data:x3>0.0</data:x3>
					<data:x4>0.0</data:x4>
				</row>
				<row>
					<data:y>1</data:y>
					<data:x1>1.0108111250054495</data:x1>
					<data:x2>-1.0108111250054495</data:x2>
					<data:x3>0.0</data:x3>
					<data:x4>0.0</data:x4>
				</row>
				<row>
					<data:y>1</data:y>
					<data:x1>1.0108111250054495</data:x1>
					<data:x2>-1.0108111250054495</data:x2>
					<data:x3>0.0</data:x3>
					<data:x4>0.0</data:x4>
				</row>
				<row>
					<data:y>1</data:y>
					<data:x1>1.0108111250054495</data:x1>
					<data:x2>-1.0108111250054495</data:x2>
					<data:x3>0.0</data:x3>
					<data:x4>0.0</data:x4>
				</row>
				<row>
					<data:y>1</data:y>
					<data:x1>1.0108111250054495</data:x1>
					<data:x2>-1.0108111250054495</data:x2>
					<data:x3>0.0</data:x3>
					<data:x4>0.0</data:x4>
				</row>
				<row>
					<data:y>1</data:y>
					<data:x1>1.0108111250054495</data:x1>
					<data:x2>-1.0108111250054495</data:x2>
					<data:x3>0.0</data:x3>
					<data:x4>0.0</data:x4>
				</row>
				<row>
					<data:y>1</data:y>
					<data:x1>1.0108111250054495</data:x1>
					<data:x2>-1.0108111250054495</data:x2>
					<data:x3>0.0</data:x3>
					<data:x4>0.0</data:x4>
				</row>
				<row>
					<data:y>1</data:y>
					<data:x1>1.0108111250054495</data:x1>
					<data:x2>-1.0108111250054495</data:x2>
					<data:x3>0.0</data:x3>
					<data:x4>0.0</data:x4>
				</row>
				<row>
					<data:y>1</data:y>
					<data:x1>1.0108111250054495</data:x1>
					<data:x2>-1.0108111250054495</data:x2>
					<data:x3>0.0</data:x3>
					<data:x4>0.0</data:x4>
				</row>
				<row>
					<data:y>0</data:y>
					<data:x1>-0.9893045053244826</data:x1>
					<data:x2>0.9893045053244826</data:x2>
					<data:x3>0.0</data:x3>
					<data:x4>0.0</data:x4>
				</row>
				<row>
					<data:y>0</data:y>
					<data:x1>-0.9893045053244826</data:x1>
					<data:x2>0.9893045053244826</data:x2>
					<data:x3>0.0</data:x3>
					<data:x4>0.0</data:x4>
				</row>
				<row>
					<data:y>0</data:y>
					<data:x1>-0.9893045053244826</data:x1>
					<data:x2>0.9893045053244826</data:x2>
					<data:x3>0.0</data:x3>
					<data:x4>0.0</data:x4>
				</row>
				<row>
					<data:y>1</data:y>
					<data:x1>1.0108111250054495</data:x1>
					<data:x2>-1.0108111250054495</data:x2>
					<data:x3>0.0</data:x3>
					<data:x4>0.0</data:x4>
				</row>
				<row>
					<data:y>0</data:y>
					<data:x1>-0.9893045053244826</data:x1>
					<data:x2>0.9893045053244826</data:x2>
					<data:x3>0.0</data:x3>
					<data:x4>0.0</data:x4>
				</row>
				<row>
					<data:y>1</data:y>
					<data:x1>1.0108111250054495</data:x1>
					<data:x2>-1.0108111250054495</data:x2>
					<data:x3>0.0</data:x3>
					<data:x4>0.0</data:x4>
				</row>
				<row>
					<data:y>1</data:y>
					<data:x1>1.0108111250054495</data:x1>
					<data:x2>-1.0108111250054495</data:x2>
					<data:x3>0.0</data:x3>
					<data:x4>0.0</data:x4>
				</row>
				<row>
					<data:y>1</data:y>
					<data:x1>-0.9893045053244826</data:x1>
					<data:x2>0.9893045053244826</data:x2>
					<data:x3>0.0</data:x3>
					<data:x4>0.0</data:x4>
				</row>
				<row>
					<data:y>0</data:y>
					<data:x1>-0.9893045053244826</data:x1>
					<data:x2>0.9893045053244826</data:x2>
					<data:x3>0.0</data:x3>
					<data:x4>0.0</data:x4>
				</row>
				<row>
					<data:y>1</data:y>
					<data:x1>1.0108111250054495</data:x1>
					<data:x2>-1.0108111250054495</data:x2>
					<data:x3>0.0</data:x3>
					<data:x4>0.0</data:x4>
				</row>
				<row>
					<data:y>1</data:y>
					<data:x1>1.0108111250054495</data:x1>
					<data:x2>-1.0108111250054495</data:x2>
					<data:x3>0.0</data:x3>
					<data:x4>0.0</data:x4>
				</row>
				<row>
					<data:y>0</data:y>
					<data:x1>-0.9893045053244826</data:x1>
					<data:x2>0.9893045053244826</data:x2>
					<data:x3>0.0</data:x3>
					<data:x4>0.0</data:x4>
				</row>
				<row>
					<data:y>0</data:y>
					<data:x1>-0.9893045053244826</data:x1>
					<data:x2>0.9893045053244826</data:x2>
					<data:x3>0.0</data:x3>
					<data:x4>0.0</data:x4>
				</row>
				<row>
					<data:y>0</data:y>
					<data:x1>-0.9893045053244826</data:x1>
					<data:x2>0.9893045053244826</data:x2>
					<data:x3>0.0</data:x3>
					<data:x4>0.0</data:x4>
				</row>
				<row>
					<data:y>1</data:y>
					<data:x1>1.0108111250054495</data:x1>
					<data:x2>-1.0108111250054495</data:x2>
					<data:x3>0.0</data:x3>
					<data:x4>0.0</data:x4>
				</row>
				<row>
					<data:y>1</data:y>
					<data:x1>-0.9893045053244826</data:x1>
					<data:x2>0.9893045053244826</data:x2>
					<data:x3>0.0</data:x3>
					<data:x4>0.0</data:x4>
				</row>
				<row>
					<data:y>1</data:y>
					<data:x1>1.0108111250054495</data:x1>
					<data:x2>-1.0108111250054495</data:x2>
					<data:x3>0.0</data:x3>
					<data:x4>0.0</data:x4>
				</row>
				<row>
					<data:y>1</data:y>
					<data:x1>1.0108111250054495</data:x1>
					<data:x2>-1.0108111250054495</data:x2>
					<data:x3>0.0</data:x3>
					<data:x4>0.0</data:x4>
				</row>
				<row>
					<data:y>1</data:y>
					<data:x1>1.0108111250054495</data:x1>
					<data:x2>-1.0108111250054495</data:x2>
					<data:x3>0.0</data:x3>
					<data:x4>0.0</data:x4>
				</row>
				<row>
					<data:y>1</data:y>
					<data:x1>1.0108111250054495</data:x1>
					<data:x2>-1.0108111250054495</data:x2>
					<data:x3>0.0</data:x3>
					<data:x4>0.0</data:x4>
				</row>
				<row>
					<data:y>0</data:y>
					<data:x1>-0.9893045053244826</data:x1>
					<data:x2>0.9893045053244826</data:x2>
					<data:x3>0.0</data:x3>
					<data:x4>0.0</data:x4>
				</row>
				<row>
					<data:y>1</data:y>
					<data:x1>-0.9893045053244826</data:x1>
					<data:x2>0.9893045053244826</data:x2>
					<data:x3>0.0</data:x3>
					<data:x4>0.0</data:x4>
				</row>
				<row>
					<data:y>1</data:y>
					<data:x1>1.0108111250054495</data:x1>
					<data:x2>-1.0108111250054495</data:x2>
					<data:x3>0.0</data:x3>
					<data:x4>0.0</data:x4>
				</row>
				<row>
					<data:y>0</data:y>
					<data:x1>-0.9893045053244826</data:x1>
					<data:x2>0.9893045053244826</data:x2>
					<data:x3>0.0</data:x3>
					<data:x4>0.0</data:x4>
				</row>
				<row>
					<data:y>1</data:y>
					<data:x1>1.0108111250054495</data:x1>
					<data:x2>-1.0108111250054495</data:x2>
					<data:x3>0.0</data:x3>
					<data:x4>0.0</data:x4>
				</row>
				<row>
					<data:y>1</data:y>
					<data:x1>1.0108111250054495</data:x1>
					<data:x2>-1.0108111250054495</data:x2>
					<data:x3>0.0</data:x3>
					<data:x4>0.0</data:x4>
				</row>
				<row>
					<data:y>0</data:y>
					<data:x1>-0.9893045053244826</data:x1>
					<data:x2>0.9893045053244826</data:x2>
					<data:x3>0.0</data:x3>
					<data:x4>0.0</data:x4>
				</row>
				<row>
					<data:y>0</data:y>
					<data:x1>-0.9893045053244826</data:x1>
					<data:x2>0.9893045053244826</data:x2>
					<data:x3>0.0</data:x3>
					<data:x4>0.0</data:x4>
				</row>
				<row>
					<data:y>1</data:y>
					<data:x1>-0.9893045053244826</data:x1>
					<data:x2>0.9893045053244826</data:x2>
					<data:x3>0.0</data:x3>
					<data:x4>0.0</data:x4>
				</row>
				<row>
					<data:y>1</data:y>
					<data:x1>-0.9893045053244826</data:x1>
					<data:x2>0.9893045053244826</data:x2>
					<data:x3>0.0</data:x3>
					<data:x4>0.0</data:x4>
				</row>
				<row>
					<data:y>0</data:y>
					<data:x1>-0.9893045053244826</data:x1>
					<data:x2>0.9893045053244826</data:x2>
					<data:x3>0.0</data:x3>
					<data:x4>0.0</data:x4>
				</row>
				<row>
					<data:y>1</data:y>
					<data:x1>1.0108111250054495</data:x1>
					<data:x2>-1.0108111250054495</data:x2>
					<data:x3>0.0</data:x3>
					<data:x4>0.0</data:x4>
				</row>
				<row>
					<data:y>0</data:y>
					<data:x1>-0.9893045053244826</data:x1>
					<data:x2>0.9893045053244826</data:x2>
					<data:x3>0.0</data:x3>
					<data:x4>0.0</data:x4>
				</row>
				<row>
					<data:y>0</data:y>
					<data:x1>-0.9893045053244826</data:x1>
					<data:x2>0.9893045053244826</data:x2>
					<data:x3>0.0</data:x3>
					<data:x4>0.0</data:x4>
				</row>
				<row>
					<data:y>1</data:y>
					<data:x1>-0.9893045053244826</data:x1>
					<data:x2>0.9893045053244826</data:x2>
					<data:x3>0.0</data:x3>
					<data:x4>0.0</data:x4>
				</row>
				<row>
					<data:y>1</data:y>
					<data:x1>1.0108111250054495</data:x1>
					<data:x2>-1.0108111250054495</data:x2>
					<data:x3>0.0</data:x3>
					<data:x4>0.0</data:x4>
				</row>
				<row>
					<data:y>1</data:y>
					<data:x1>-0.9893045053244826</data:x1>
					<data:x2>0.9893045053244826</data:x2>
					<data:x3>0.0</data:x3>
					<data:x4>0.0</data:x4>
				</row>
				<row>
					<data:y>1</data:y>
					<data:x1>1.0108111250054495</data:x1>
					<data:x2>-1.0108111250054495</data:x2>
					<data:x3>0.0</data:x3>
					<data:x4>0.0</data:x4>
				</row>
				<row>
					<data:y>1</data:y>
					<data:x1>-0.9893045053244826</data:x1>
					<data:x2>0.9893045053244826</data:x2>
					<data:x3>0.0</data:x3>
					<data:x4>0.0</data:x4>
				</row>
				<row>
					<data:y>1</data:y>
					<data:x1>1.0108111250054495</data:x1>
					<data:x2>-1.0108111250054495</data:x2>
					<data:x3>0.0</data:x3>
					<data:x4>0.0</data:x4>
				</row>
				<row>
					<data:y>0</data:y>
					<data:x1>-0.9893045053244826</data:x1>
					<data:x2>0.9893045053244826</data:x2>
					<data:x3>0.0</data:x3>
					<data:x4>0.0</data:x4>
				</row>
				<row>
					<data:y>1</data:y>
					<data:x1>1.0108111250054495</data:x1>
					<data:x2>-1.0108111250054495</data:x2>
					<data:x3>0.0</data:x3>
					<data:x4>0.0</data:x4>
				</row>
				<row>
					<data:y>1</data:y>
					<data:x1>1.0108111250054495</data:x1>
					<data:x2>-1.0108111250054495</data:x2>
					<data:x3>0.0</data:x3>
					<data:x4>0.0</data:x4>
				</row>
				<row>
					<data:y>0</data:y>
					<data:x1>-0.9893045053244826</data:x1>
					<data:x2>0.9893045053244826</data:x2>
					<data:x3>0.0</data:x3>
					<data:x4>0.0</data:x4>
				</row>
				<row>
					<data:y>0</data:y>
					<data:x1>-0.9893045053244826</data:x1>
					<data:x2>0.9893045053244826</data:x2>
					<data:x3>0.0</data:x3>
					<data:x4>0.0</data:x4>
				</row>
				<row>
					<data:y>1</data:y>
					<data:x1>1.0108111250054495</data:x1>
					<data:x2>-1.0108111250054495</data:x2>
					<data:x3>0.0</data:x3>
					<data:x4>0.0</data:x4>
				</row>
				<row>
					<data:y>1</data:y>
					<data:x1>1.0108111250054495</data:x1>
					<data:x2>-1.0108111250054495</data:x2>
					<data:x3>0.0</data:x3>
					<data:x4>0.0</data:x4>
				</row>
				<row>
					<data:y>1</data:y>
					<data:x1>1.0108111250054495</data:x1>
					<data:x2>-1.0108111250054495</data:x2>
					<data:x3>0.0</data:x3>
					<data:x4>0.0</data:x4>
				</row>
				<row>
					<data:y>1</data:y>
					<data:x1>1.0108111250054495</data:x1>
					<data:x2>-1.0108111250054495</data:x2>
					<data:x3>0.0</data:x3>
					<data:x4>0.0</data:x4>
				</row>
				<row>
					<data:y>1</data:y>
					<data:x1>1.0108111250054495</data:x1>
					<data:x2>-1.0108111250054495</data:x2>
					<data:x3>0.0</data:x3>
					<data:x4>0.0</data:x4>
				</row>
				<row>
					<data:y>0</data:y>
					<data:x1>-0.9893045053244826</data:x1>
					<data:x2>0.9893045053244826</data:x2>
					<data:x3>0.0</data:x3>
					<data:x4>0.0</data:x4>
				</row>
				<row>
					<data:y>0</data:y>
					<data:x1>-0.9893045053244826</data:x1>
					<data:x2>0.9893045053244826</data:x2>
					<data:x3>0.0</data:x3>
					<data:x4>0.0</data:x4>
				</row>
				<row>
					<data:y>1</data:y>
					<data:x1>1.0108111250054495</data:x1>
					<data:x2>-1.0108111250054495</data:x2>
					<data:x3>0.0</data:x3>
					<data:x4>0.0</data:x4>
				</row>
				<row>
					<data:y>0</data:y>
					<data:x1>-0.9893045053244826</data:x1>
					<data:x2>0.9893045053244826</data:x2>
					<data:x3>0.0</data:x3>
					<data:x4>0.0</data:x4>
				</row>
				<row>
					<data:y>0</data:y>
					<data:x1>-0.9893045053244826</data:x1>
					<data:x2>0.9893045053244826</data:x2>
					<data:x3>0.0</data:x3>
					<data:x4>0.0</data:x4>
				</row>
				<row>
					<data:y>1</data:y>
					<data:x1>1.0108111250054495</data:x1>
					<data:x2>-1.0108111250054495</data:x2>
					<data:x3>0.0</data:x3>
					<data:x4>0.0</data:x4>
				</row>
				<row>
					<data:y>0</data:y>
					<data:x1>-0.9893045053244826</data:x1>
					<data:x2>0.9893045053244826</data:x2>
					<data:x3>0.0</data:x3>
					<data:x4>0.0</data:x4>
				</row>
				<row>
					<data:y>1</data:y>
					<data:x1>1.0108111250054495</data:x1>
					<data:x2>-1.0108111250054495</data:x2>
					<data:x3>0.0</data:x3>
					<data:x4>0.0</data:x4>
				</row>
				<row>
					<data:y>1</data:y>
					<data:x1>-0.9893045053244826</data:x1>
					<data:x2>0.9893045053244826</data:x2>
					<data:x3>0.0</data:x3>
					<data:x4>0.0</data:x4>
				</row>
				<row>
					<data:y>1</data:y>
					<data:x1>1.0108111250054495</data:x1>
					<data:x2>-1.0108111250054495</data:x2>
					<data:x3>0.0</data:x3>
					<data:x4>0.0</data:x4>
				</row>
				<row>
					<data:y>1</data:y>
					<data:x1>1.0108111250054495</data:x1>
					<data:x2>-1.0108111250054495</data:x2>
					<data:x3>0.0</data:x3>
					<data:x4>0.0</data:x4>
				</row>
				<row>
					<data:y>0</data:y>
					<data:x1>-0.9893045053244826</data:x1>
					<data:x2>0.9893045053244826</data:x2>
					<data:x3>0.0</data:x3>
					<data:x4>0.0</data:x4>
				</row>
				<row>
					<data:y>1</data:y>
					<data:x1>1.0108111250054495</data:x1>
					<data:x2>-1.0108111250054495</data:x2>
					<data:x3>0.0</data:x3>
					<data:x4>0.0</data:x4>
				</row>
				<row>
					<data:y>1</data:y>
					<data:x1>1.0108111250054495</data:x1>
					<data:x2>-1.0108111250054495</data:x2>
					<data:x3>0.0</data:x3>
					<data:x4>0.0</data:x4>
				</row>
				<row>
					<data:y>1</data:y>
					<data:x1>-0.9893045053244826</data:x1>
					<data:x2>0.9893045053244826</data:x2>
					<data:x3>0.0</data:x3>
					<data:x4>0.0</data:x4>
				</row>
				<row>
					<data:y>1</data:y>
					<data:x1>1.0108111250054495</data:x1>
					<data:x2>-1.0108111250054495</data:x2>
					<data:x3>0.0</data:x3>
					<data:x4>0.0</data:x4>
				</row>
				<row>
					<data:y>0</data:y>
					<data:x1>-0.9893045053244826</data:x1>
					<data:x2>0.9893045053244826</data:x2>
					<data:x3>0.0</data:x3>
					<data:x4>0.0</data:x4>
				</row>
				<row>
					<data:y>0</data:y>
					<data:x1>-0.9893045053244826</data:x1>
					<data:x2>0.9893045053244826</data:x2>
					<data:x3>0.0</data:x3>
					<data:x4>0.0</data:x4>
				</row>
				<row>
					<data:y>1</data:y>
					<data:x1>1.0108111250054495</data:x1>
					<data:x2>-1.0108111250054495</data:x2>
					<data:x3>0.0</data:x3>
					<data:x4>0.0</data:x4>
				</row>
				<row>
					<data:y>0</data:y>
					<data:x1>-0.9893045053244826</data:x1>
					<data:x2>0.9893045053244826</data:x2>
					<data:x3>0.0</data:x3>
					<data:x4>0.0</data:x4>
				</row>
				<row>
					<data:y>1</data:y>
					<data:x1>1.0108111250054495</data:x1>
					<data:x2>-1.0108111250054495</data:x2>
					<data:x3>0.0</data:x3>
					<data:x4>0.0</data:x4>
				</row>
				<row>
					<data:y>1</data:y>
					<data:x1>1.0108111250054495</data:x1>
					<data:x2>-1.0108111250054495</data:x2>
					<data:x3>0.0</data:x3>
					<data:x4>0.0</data:x4>
				</row>
				<row>
					<data:y>0</data:y>
					<data:x1>-0.9893045053244826</data:x1>
					<data:x2>0.9893045053244826</data:x2>
					<data:x3>0.0</data:x3>
					<data:x4>0.0</data:x4>
				</row>
				<row>
					<data:y>1</data:y>
					<data:x1>1.0108111250054495</data:x1>
					<data:x2>-1.0108111250054495</data:x2>
					<data:x3>0.0</data:x3>
					<data:x4>0.0</data:x4>
				</row>
				<row>
					<data:y>1</data:y>
					<data:x1>1.0108111250054495</data:x1>
					<data:x2>-1.0108111250054495</data:x2>
					<data:x3>0.0</data:x3>
					<data:x4>0.0</data:x4>
				</row>
				<row>
					<data:y>1</data:y>
					<data:x1>-0.9893045053244826</data:x1>
					<data:x2>0.9893045053244826</data:x2>
					<data:x3>0.0</data:x3>
					<data:x4>0.0</data:x4>
				</row>
				<row>
					<data:y>1</data:y>
					<data:x1>1.0108111250054495</data:x1>
					<data:x2>-1.0108111250054495</data:x2>
					<data:x3>0.0</data:x3>
					<data:x4>0.0</data:x4>
				</row>
				<row>
					<data:y>0</data:y>
					<data:x1>-0.9893045053244826</data:x1>
					<data:x2>0.9893045053244826</data:x2>
					<data:x3>0.0</data:x3>
					<data:x4>0.0</data:x4>
				</row>
				<row>
					<data:y>0</data:y>
					<data:x1>-0.9893045053244826</data:x1>
					<data:x2>0.9893045053244826</data:x2>
					<data:x3>0.0</data:x3>
					<data:x4>0.0</data:x4>
				</row>
				<row>
					<data:y>1</data:y>
					<data:x1>1.0108111250054495</data:x1>
					<data:x2>-1.0108111250054495</data:x2>
					<data:x3>0.0</data:x3>
					<data:x4>0.0</data:x4>
				</row>
				<row>
					<data:y>0</data:y>
					<data:x1>-0.9893045053244826</data:x1>
					<data:x2>0.9893045053244826</data:x2>
					<data:x3>0.0</data:x3>
					<data:x4>0.0</data:x4>
				</row>
				<row>
					<data:y>1</data:y>
					<data:x1>1.0108111250054495</data:x1>
					<data:x2>-1.0108111250054495</data:x2>
					<data:x3>0.0</data:x3>
					<data:x4>0.0</data:x4>
				</row>
				<row>
					<data:y>1</data:y>
					<data:x1>1.0108111250054495</data:x1>
					<data:x2>-1.0108111250054495</data:x2>
					<data:x3>0.0</data:x3>
					<data:x4>0.0</data:x4>
				</row>
				<row>
					<data:y>1</data:y>
					<data:x1>1.0108111250054495</data:x1>
					<data:x2>-1.0108111250054495</data:x2>
					<data:x3>0.0</data:x3>
					<data:x4>0.0</data:x4>
				</row>
				<row>
					<data:y>1</data:y>
					<data:x1>1.0108111250054495</data:x1>
					<data:x2>-1.0108111250054495</data:x2>
					<data:x3>0.0</data:x3>
					<data:x4>0.0</data:x4>
				</row>
				<row>
					<data:y>1</data:y>
					<data:x1>1.0108111250054495</data:x1>
					<data:x2>-1.0108111250054495</data:x2>
					<data:x3>0.0</data:x3>
					<data:x4>0.0</data:x4>
				</row>
				<row>
					<data:y>1</data:y>
					<data:x1>1.0108111250054495</data:x1>
					<data:x2>-1.0108111250054495</data:x2>
					<data:x3>0.0</data:x3>
					<data:x4>0.0</data:x4>
				</row>
				<row>
					<data:y>0</data:y>
					<data:x1>-0.9893045053244826</data:x1>
					<data:x2>0.9893045053244826</data:x2>
					<data:x3>0.0</data:x3>
					<data:x4>0.0</data:x4>
				</row>
				<row>
					<data:y>1</data:y>
					<data:x1>1.0108111250054495</data:x1>
					<data:x2>-1.0108111250054495</data:x2>
					<data:x3>0.0</data:x3>
					<data:x4>0.0</data:x4>
				</row>
				<row>
					<data:y>1</data:y>
					<data:x1>1.0108111250054495</data:x1>
					<data:x2>-1.0108111250054495</data:x2>
					<data:x3>0.0</data:x3>
					<data:x4>0.0</data:x4>
				</row>
				<row>
					<data:y>1</data:y>
					<data:x1>-0.9893045053244826</data:x1>
					<data:x2>0.9893045053244826</data:x2>
					<data:x3>0.0</data:x3>
					<data:x4>0.0</data:x4>
				</row>
				<row>
					<data:y>1</data:y>
					<data:x1>1.0108111250054495</data:x1>
					<data:x2>-1.0108111250054495</data:x2>
					<data:x3>0.0</data:x3>
					<data:x4>0.0</data:x4>
				</row>
				<row>
					<data:y>1</data:y>
					<data:x1>1.0108111250054495</data:x1>
					<data:x2>-1.0108111250054495</data:x2>
					<data:x3>0.0</data:x3>
					<data:x4>0.0</data:x4>
				</row>
				<row>
					<data:y>1</data:y>
					<data:x1>1.0108111250054495</data:x1>
					<data:x2>-1.0108111250054495</data:x2>
					<data:x3>0.0</data:x3>
					<data:x4>0.0</data:x4>
				</row>
				<row>
					<data:y>1</data:y>
					<data:x1>1.0108111250054495</data:x1>
					<data:x2>-1.0108111250054495</data:x2>
					<data:x3>0.0</data:x3>
					<data:x4>0.0</data:x4>
				</row>
				<row>
					<data:y>1</data:y>
					<data:x1>1.0108111250054495</data:x1>
					<data:x2>-1.0108111250054495</data:x2>
					<data:x3>0.0</data:x3>
					<data:x4>0.0</data:x4>
				</row>
				<row>
					<data:y>1</data:y>
					<data:x1>1.0108111250054495</data:x1>
					<data:x2>-1.0108111250054495</data:x2>
					<data:x3>0.0</data:x3>
					<data:x4>0.0</data:x4>
				</row>
				<row>
					<data:y>1</data:y>
					<data:x1>-0.9893045053244826</data:x1>
					<data:x2>0.9893045053244826</data:x2>
					<data:x3>0.0</data:x3>
					<data:x4>0.0</data:x4>
				</row>
				<row>
					<data:y>1</data:y>
					<data:x1>1.0108111250054495</data:x1>
					<data:x2>-1.0108111250054495</data:x2>
					<data:x3>0.0</data:x3>
					<data:x4>0.0</data:x4>
				</row>
				<row>
					<data:y>0</data:y>
					<data:x1>-0.9893045053244826</data:x1>
					<data:x2>0.9893045053244826</data:x2>
					<data:x3>0.0</data:x3>
					<data:x4>0.0</data:x4>
				</row>
				<row>
					<data:y>1</data:y>
					<data:x1>1.0108111250054495</data:x1>
					<data:x2>-1.0108111250054495</data:x2>
					<data:x3>0.0</data:x3>
					<data:x4>0.0</data:x4>
				</row>
				<row>
					<data:y>0</data:y>
					<data:x1>-0.9893045053244826</data:x1>
					<data:x2>0.9893045053244826</data:x2>
					<data:x3>0.0</data:x3>
					<data:x4>0.0</data:x4>
				</row>
				<row>
					<data:y>1</data:y>
					<data:x1>-0.9893045053244826</data:x1>
					<data:x2>0.9893045053244826</data:x2>
					<data:x3>0.0</data:x3>
					<data:x4>0.0</data:x4>
				</row>
				<row>
					<data:y>0</data:y>
					<data:x1>-0.9893045053244826</data:x1>
					<data:x2>0.9893045053244826</data:x2>
					<data:x3>0.0</data:x3>
					<data:x4>0.0</data:x4>
				</row>
				<row>
					<data:y>0</data:y>
					<data:x1>-0.9893045053244826</data:x1>
					<data:x2>0.9893045053244826</data:x2>
					<data:x3>0.0</data:x3>
					<data:x4>0.0</data:x4>
				</row>
				<row>
					<data:y>1</data:y>
					<data:x1>1.0108111250054495</data:x1>
					<data:x2>-1.0108111250054495</data:x2>
					<data:x3>0.0</data:x3>
					<data:x4>0.0</data:x4>
				</row>
				<row>
					<data:y>1</data:y>
					<data:x1>1.0108111250054495</data:x1>
					<data:x2>-1.0108111250054495</data:x2>
					<data:x3>0.0</data:x3>
					<data:x4>0.0</data:x4>
				</row>
				<row>
					<data:y>1</data:y>
					<data:x1>1.0108111250054495</data:x1>
					<data:x2>-1.0108111250054495</data:x2>
					<data:x3>0.0</data:x3>
					<data:x4>0.0</data:x4>
				</row>
				<row>
					<data:y>1</data:y>
					<data:x1>1.0108111250054495</data:x1>
					<data:x2>-1.0108111250054495</data:x2>
					<data:x3>0.0</data:x3>
					<data:x4>0.0</data:x4>
				</row>
				<row>
					<data:y>0</data:y>
					<data:x1>-0.9893045053244826</data:x1>
					<data:x2>0.9893045053244826</data:x2>
					<data:x3>0.0</data:x3>
					<data:x4>0.0</data:x4>
				</row>
				<row>
					<data:y>0</data:y>
					<data:x1>-0.9893045053244826</data:x1>
					<data:x2>0.9893045053244826</data:x2>
					<data:x3>0.0</data:x3>
					<data:x4>0.0</data:x4>
				</row>
				<row>
					<data:y>1</data:y>
					<data:x1>1.0108111250054495</data:x1>
					<data:x2>-1.0108111250054495</data:x2>
					<data:x3>0.0</data:x3>
					<data:x4>0.0</data:x4>
				</row>
				<row>
					<data:y>1</data:y>
					<data:x1>1.0108111250054495</data:x1>
					<data:x2>-1.0108111250054495</data:x2>
					<data:x3>0.0</data:x3>
					<data:x4>0.0</data:x4>
				</row>
				<row>
					<data:y>1</data:y>
					<data:x1>-0.9893045053244826</data:x1>
					<data:x2>0.9893045053244826</data:x2>
					<data:x3>0.0</data:x3>
					<data:x4>0.0</data:x4>
				</row>
				<row>
					<data:y>1</data:y>
					<data:x1>1.0108111250054495</data:x1>
					<data:x2>-1.0108111250054495</data:x2>
					<data:x3>0.0</data:x3>
					<data:x4>0.0</data:x4>
				</row>
				<row>
					<data:y>1</data:y>
					<data:x1>1.0108111250054495</data:x1>
					<data:x2>-1.0108111250054495</data:x2>
					<data:x3>0.0</data:x3>
					<data:x4>0.0</data:x4>
				</row>
				<row>
					<data:y>0</data:y>
					<data:x1>-0.9893045053244826</data:x1>
					<data:x2>0.9893045053244826</data:x2>
					<data:x3>0.0</data:x3>
					<data:x4>0.0</data:x4>
				</row>
				<row>
					<data:y>1</data:y>
					<data:x1>1.0108111250054495</data:x1>
					<data:x2>-1.0108111250054495</data:x2>
					<data:x3>0.0</data:x3>
					<data:x4>0.0</data:x4>
				</row>
				<row>
					<data:y>1</data:y>
					<data:x1>1.0108111250054495</data:x1>
					<data:x2>-1.0108111250054495</data:x2>
					<data:x3>0.0</data:x3>
					<data:x4>0.0</data:x4>
				</row>
				<row>
					<data:y>0</data:y>
					<data:x1>-0.9893045053244826</data:x1>
					<data:x2>0.9893045053244826</data:x2>
					<data:x3>0.0</data:x3>
					<data:x4>0.0</data:x4>
				</row>
				<row>
					<data:y>0</data:y>
					<data:x1>-0.9893045053244826</data:x1>
					<data:x2>0.9893045053244826</data:x2>
					<data:x3>0.0</data:x3>
					<data:x4>0.0</data:x4>
				</row>
				<row>
					<data:y>1</data:y>
					<data:x1>1.0108111250054495</data:x1>
					<data:x2>-1.0108111250054495</data:x2>
					<data:x3>0.0</data:x3>
					<data:x4>0.0</data:x4>
				</row>
				<row>
					<data:y>1</data:y>
					<data:x1>1.0108111250054495</data:x1>
					<data:x2>-1.0108111250054495</data:x2>
					<data:x3>0.0</data:x3>
					<data:x4>0.0</data:x4>
				</row>
				<row>
					<data:y>0</data:y>
					<data:x1>-0.9893045053244826</data:x1>
					<data:x2>0.9893045053244826</data:x2>
					<data:x3>0.0</data:x3>
					<data:x4>0.0</data:x4>
				</row>
				<row>
					<data:y>0</data:y>
					<data:x1>-0.9893045053244826</data:x1>
					<data:x2>0.9893045053244826</data:x2>
					<data:x3>0.0</data:x3>
					<data:x4>0.0</data:x4>
				</row>
				<row>
					<data:y>1</data:y>
					<data:x1>-0.9893045053244826</data:x1>
					<data:x2>0.9893045053244826</data:x2>
					<data:x3>0.0</data:x3>
					<data:x4>0.0</data:x4>
				</row>
				<row>
					<data:y>1</data:y>
					<data:x1>1.0108111250054495</data:x1>
					<data:x2>-1.0108111250054495</data:x2>
					<data:x3>0.0</data:x3>
					<data:x4>0.0</data:x4>
				</row>
				<row>
					<data:y>1</data:y>
					<data:x1>-0.9893045053244826</data:x1>
					<data:x2>0.9893045053244826</data:x2>
					<data:x3>0.0</data:x3>
					<data:x4>0.0</data:x4>
				</row>
				<row>
					<data:y>0</data:y>
					<data:x1>-0.9893045053244826</data:x1>
					<data:x2>0.9893045053244826</data:x2>
					<data:x3>0.0</data:x3>
					<data:x4>0.0</data:x4>
				</row>
				<row>
					<data:y>1</data:y>
					<data:x1>1.0108111250054495</data:x1>
					<data:x2>-1.0108111250054495</data:x2>
					<data:x3>0.0</data:x3>
					<data:x4>0.0</data:x4>
				</row>
				<row>
					<data:y>1</data:y>
					<data:x1>1.0108111250054495</data:x1>
					<data:x2>-1.0108111250054495</data:x2>
					<data:x3>0.0</data:x3>
					<data:x4>0.0</data:x4>
				</row>
				<row>
					<data:y>0</data:y>
					<data:x1>-0.9893045053244826</data:x1>
					<data:x2>0.9893045053244826</data:x2>
					<data:x3>0.0</data:x3>
					<data:x4>0.0</data:x4>
				</row>
				<row>
					<data:y>1</data:y>
					<data:x1>1.0108111250054495</data:x1>
					<data:x2>-1.0108111250054495</data:x2>
					<data:x3>0.0</data:x3>
					<data:x4>0.0</data:x4>
				</row>
				<row>
					<data:y>0</data:y>
					<data:x1>-0.9893045053244826</data:x1>
					<data:x2>0.9893045053244826</data:x2>
					<data:x3>0.0</data:x3>
					<data:x4>0.0</data:x4>
				</row>
				<row>
					<data:y>1</data:y>
					<data:x1>1.0108111250054495</data:x1>
					<data:x2>-1.0108111250054495</data:x2>
					<data:x3>0.0</data:x3>
					<data:x4>0.0</data:x4>
				</row>
				<row>
					<data:y>0</data:y>
					<data:x1>-0.9893045053244826</data:x1>
					<data:x2>0.9893045053244826</data:x2>
					<data:x3>0.0</data:x3>
					<data:x4>0.0</data:x4>
				</row>
				<row>
					<data:y>0</data:y>
					<data:x1>-0.9893045053244826</data:x1>
					<data:x2>0.9893045053244826</data:x2>
					<data:x3>0.0</data:x3>
					<data:x4>0.0</data:x4>
				</row>
				<row>
					<data:y>0</data:y>
					<data:x1>-0.9893045053244826</data:x1>
					<data:x2>0.9893045053244826</data:x2>
					<data:x3>0.0</data:x3>
					<data:x4>0.0</data:x4>
				</row>
				<row>
					<data:y>1</data:y>
					<data:x1>1.0108111250054495</data:x1>
					<data:x2>-1.0108111250054495</data:x2>
					<data:x3>0.0</data:x3>
					<data:x4>0.0</data:x4>
				</row>
				<row>
					<data:y>0</data:y>
					<data:x1>-0.9893045053244826</data:x1>
					<data:x2>0.9893045053244826</data:x2>
					<data:x3>0.0</data:x3>
					<data:x4>0.0</data:x4>
				</row>
				<row>
					<data:y>1</data:y>
					<data:x1>1.0108111250054495</data:x1>
					<data:x2>-1.0108111250054495</data:x2>
					<data:x3>0.0</data:x3>
					<data:x4>0.0</data:x4>
				</row>
				<row>
					<data:y>0</data:y>
					<data:x1>-0.9893045053244826</data:x1>
					<data:x2>0.9893045053244826</data:x2>
					<data:x3>0.0</data:x3>
					<data:x4>0.0</data:x4>
				</row>
				<row>
					<data:y>1</data:y>
					<data:x1>-0.9893045053244826</data:x1>
					<data:x2>0.9893045053244826</data:x2>
					<data:x3>0.0</data:x3>
					<data:x4>0.0</data:x4>
				</row>
				<row>
					<data:y>1</data:y>
					<data:x1>1.0108111250054495</data:x1>
					<data:x2>-1.0108111250054495</data:x2>
					<data:x3>0.0</data:x3>
					<data:x4>0.0</data:x4>
				</row>
				<row>
					<data:y>1</data:y>
					<data:x1>-0.9893045053244826</data:x1>
					<data:x2>0.9893045053244826</data:x2>
					<data:x3>0.0</data:x3>
					<data:x4>0.0</data:x4>
				</row>
				<row>
					<data:y>0</data:y>
					<data:x1>-0.9893045053244826</data:x1>
					<data:x2>0.9893045053244826</data:x2>
					<data:x3>0.0</data:x3>
					<data:x4>0.0</data:x4>
				</row>
				<row>
					<data:y>1</data:y>
					<data:x1>1.0108111250054495</data:x1>
					<data:x2>-1.0108111250054495</data:x2>
					<data:x3>0.0</data:x3>
					<data:x4>0.0</data:x4>
				</row>
				<row>
					<data:y>1</data:y>
					<data:x1>1.0108111250054495</data:x1>
					<data:x2>-1.0108111250054495</data:x2>
					<data:x3>0.0</data:x3>
					<data:x4>0.0</data:x4>
				</row>
				<row>
					<data:y>0</data:y>
					<data:x1>-0.9893045053244826</data:x1>
					<data:x2>0.9893045053244826</data:x2>
					<data:x3>0.0</data:x3>
					<data:x4>0.0</data:x4>
				</row>
				<row>
					<data:y>1</data:y>
					<data:x1>1.0108111250054495</data:x1>
					<data:x2>-1.0108111250054495</data:x2>
					<data:x3>0.0</data:x3>
					<data:x4>0.0</data:x4>
				</row>
				<row>
					<data:y>1</data:y>
					<data:x1>1.0108111250054495</data:x1>
					<data:x2>-1.0108111250054495</data:x2>
					<data:x3>0.0</data:x3>
					<data:x4>0.0</data:x4>
				</row>
				<row>
					<data:y>0</data:y>
					<data:x1>-0.9893045053244826</data:x1>
					<data:x2>0.9893045053244826</data:x2>
					<data:x3>0.0</data:x3>
					<data:x4>0.0</data:x4>
				</row>
				<row>
					<data:y>1</data:y>
					<data:x1>1.0108111250054495</data:x1>
					<data:x2>-1.0108111250054495</data:x2>
					<data:x3>0.0</data:x3>
					<data:x4>0.0</data:x4>
				</row>
				<row>
					<data:y>1</data:y>
					<data:x1>1.0108111250054495</data:x1>
					<data:x2>-1.0108111250054495</data:x2>
					<data:x3>0.0</data:x3>
					<data:x4>0.0</data:x4>
				</row>
				<row>
					<data:y>0</data:y>
					<data:x1>-0.9893045053244826</data:x1>
					<data:x2>0.9893045053244826</data:x2>
					<data:x3>0.0</data:x3>
					<data:x4>0.0</data:x4>
				</row>
				<row>
					<data:y>1</data:y>
					<data:x1>1.0108111250054495</data:x1>
					<data:x2>-1.0108111250054495</data:x2>
					<data:x3>0.0</data:x3>
					<data:x4>0.0</data:x4>
				</row>
				<row>
					<data:y>1</data:y>
					<data:x1>1.0108111250054495</data:x1>
					<data:x2>-1.0108111250054495</data:x2>
					<data:x3>0.0</data:x3>
					<data:x4>0.0</data:x4>
				</row>
				<row>
					<data:y>1</data:y>
					<data:x1>1.0108111250054495</data:x1>
					<data:x2>-1.0108111250054495</data:x2>
					<data:x3>0.0</data:x3>
					<data:x4>0.0</data:x4>
				</row>
				<row>
					<data:y>1</data:y>
					<data:x1>1.0108111250054495</data:x1>
					<data:x2>-1.0108111250054495</data:x2>
					<data:x3>0.0</data:x3>
					<data:x4>0.0</data:x4>
				</row>
				<row>
					<data:y>0</data:y>
					<data:x1>-0.9893045053244826</data:x1>
					<data:x2>0.9893045053244826</data:x2>
					<data:x3>0.0</data:x3>
					<data:x4>0.0</data:x4>
				</row>
				<row>
					<data:y>1</data:y>
					<data:x1>1.0108111250054495</data:x1>
					<data:x2>-1.0108111250054495</data:x2>
					<data:x3>0.0</data:x3>
					<data:x4>0.0</data:x4>
				</row>
				<row>
					<data:y>1</data:y>
					<data:x1>1.0108111250054495</data:x1>
					<data:x2>-1.0108111250054495</data:x2>
					<data:x3>0.0</data:x3>
					<data:x4>0.0</data:x4>
				</row>
				<row>
					<data:y>0</data:y>
					<data:x1>-0.9893045053244826</data:x1>
					<data:x2>0.9893045053244826</data:x2>
					<data:x3>0.0</data:x3>
					<data:x4>0.0</data:x4>
				</row>
				<row>
					<data:y>0</data:y>
					<data:x1>-0.9893045053244826</data:x1>
					<data:x2>0.9893045053244826</data:x2>
					<data:x3>0.0</data:x3>
					<data:x4>0.0</data:x4>
				</row>
				<row>
					<data:y>1</data:y>
					<data:x1>1.0108111250054495</data:x1>
					<data:x2>-1.0108111250054495</data:x2>
					<data:x3>0.0</data:x3>
					<data:x4>0.0</data:x4>
				</row>
				<row>
					<data:y>0</data:y>
					<data:x1>-0.9893045053244826</data:x1>
					<data:x2>0.9893045053244826</data:x2>
					<data:x3>0.0</data:x3>
					<data:x4>0.0</data:x4>
				</row>
				<row>
					<data:y>0</data:y>
					<data:x1>-0.9893045053244826</data:x1>
					<data:x2>0.9893045053244826</data:x2>
					<data:x3>0.0</data:x3>
					<data:x4>0.0</data:x4>
				</row>
				<row>
					<data:y>0</data:y>
					<data:x1>-0.9893045053244826</data:x1>
					<data:x2>0.9893045053244826</data:x2>
					<data:x3>0.0</data:x3>
					<data:x4>0.0</data:x4>
				</row>
				<row>
					<data:y>1</data:y>
					<data:x1>1.0108111250054495</data:x1>
					<data:x2>-1.0108111250054495</data:x2>
					<data:x3>0.0</data:x3>
					<data:x4>0.0</data:x4>
				</row>
				<row>
					<data:y>1</data:y>
					<data:x1>1.0108111250054495</data:x1>
					<data:x2>-1.0108111250054495</data:x2>
					<data:x3>0.0</data:x3>
					<data:x4>0.0</data:x4>
				</row>
				<row>
					<data:y>1</data:y>
					<data:x1>1.0108111250054495</data:x1>
					<data:x2>-1.0108111250054495</data:x2>
					<data:x3>0.0</data:x3>
					<data:x4>0.0</data:x4>
				</row>
				<row>
					<data:y>0</data:y>
					<data:x1>-0.9893045053244826</data:x1>
					<data:x2>0.9893045053244826</data:x2>
					<data:x3>0.0</data:x3>
					<data:x4>0.0</data:x4>
				</row>
				<row>
					<data:y>1</data:y>
					<data:x1>1.0108111250054495</data:x1>
					<data:x2>-1.0108111250054495</data:x2>
					<data:x3>0.0</data:x3>
					<data:x4>0.0</data:x4>
				</row>
				<row>
					<data:y>1</data:y>
					<data:x1>1.0108111250054495</data:x1>
					<data:x2>-1.0108111250054495</data:x2>
					<data:x3>0.0</data:x3>
					<data:x4>0.0</data:x4>
				</row>
				<row>
					<data:y>1</data:y>
					<data:x1>1.0108111250054495</data:x1>
					<data:x2>-1.0108111250054495</data:x2>
					<data:x3>0.0</data:x3>
					<data:x4>0.0</data:x4>
				</row>
				<row>
					<data:y>1</data:y>
					<data:x1>1.0108111250054495</data:x1>
					<data:x2>-1.0108111250054495</data:x2>
					<data:x3>0.0</data:x3>
					<data:x4>0.0</data:x4>
				</row>
				<row>
					<data:y>1</data:y>
					<data:x1>1.0108111250054495</data:x1>
					<data:x2>-1.0108111250054495</data:x2>
					<data:x3>0.0</data:x3>
					<data:x4>0.0</data:x4>
				</row>
				<row>
					<data:y>1</data:y>
					<data:x1>-0.9893045053244826</data:x1>
					<data:x2>0.9893045053244826</data:x2>
					<data:x3>0.0</data:x3>
					<data:x4>0.0</data:x4>
				</row>
				<row>
					<data:y>0</data:y>
					<data:x1>-0.9893045053244826</data:x1>
					<data:x2>0.9893045053244826</data:x2>
					<data:x3>0.0</data:x3>
					<data:x4>0.0</data:x4>
				</row>
				<row>
					<data:y>0</data:y>
					<data:x1>-0.9893045053244826</data:x1>
					<data:x2>0.9893045053244826</data:x2>
					<data:x3>0.0</data:x3>
					<data:x4>0.0</data:x4>
				</row>
				<row>
					<data:y>1</data:y>
					<data:x1>1.0108111250054495</data:x1>
					<data:x2>-1.0108111250054495</data:x2>
					<data:x3>0.0</data:x3>
					<data:x4>0.0</data:x4>
				</row>
				<row>
					<data:y>1</data:y>
					<data:x1>1.0108111250054495</data:x1>
					<data:x2>-1.0108111250054495</data:x2>
					<data:x3>0.0</data:x3>
					<data:x4>0.0</data:x4>
				</row>
				<row>
					<data:y>1</data:y>
					<data:x1>1.0108111250054495</data:x1>
					<data:x2>-1.0108111250054495</data:x2>
					<data:x3>0.0</data:x3>
					<data:x4>0.0</data:x4>
				</row>
				<row>
					<data:y>1</data:y>
					<data:x1>1.0108111250054495</data:x1>
					<data:x2>-1.0108111250054495</data:x2>
					<data:x3>0.0</data:x3>
					<data:x4>0.0</data:x4>
				</row>
				<row>
					<data:y>0</data:y>
					<data:x1>-0.9893045053244826</data:x1>
					<data:x2>0.9893045053244826</data:x2>
					<data:x3>0.0</data:x3>
					<data:x4>0.0</data:x4>
				</row>
				<row>
					<data:y>0</data:y>
					<data:x1>-0.9893045053244826</data:x1>
					<data:x2>0.9893045053244826</data:x2>
					<data:x3>0.0</data:x3>
					<data:x4>0.0</data:x4>
				</row>
				<row>
					<data:y>0</data:y>
					<data:x1>-0.9893045053244826</data:x1>
					<data:x2>0.9893045053244826</data:x2>
					<data:x3>0.0</data:x3>
					<data:x4>0.0</data:x4>
				</row>
				<row>
					<data:y>1</data:y>
					<data:x1>1.0108111250054495</data:x1>
					<data:x2>-1.0108111250054495</data:x2>
					<data:x3>0.0</data:x3>
					<data:x4>0.0</data:x4>
				</row>
				<row>
					<data:y>1</data:y>
					<data:x1>1.0108111250054495</data:x1>
					<data:x2>-1.0108111250054495</data:x2>
					<data:x3>0.0</data:x3>
					<data:x4>0.0</data:x4>
				</row>
				<row>
					<data:y>1</data:y>
					<data:x1>1.0108111250054495</data:x1>
					<data:x2>-1.0108111250054495</data:x2>
					<data:x3>0.0</data:x3>
					<data:x4>0.0</data:x4>
				</row>
				<row>
					<data:y>0</data:y>
					<data:x1>-0.9893045053244826</data:x1>
					<data:x2>0.9893045053244826</data:x2>
					<data:x3>0.0</data:x3>
					<data:x4>0.0</data:x4>
				</row>
				<row>
					<data:y>1</data:y>
					<data:x1>1.0108111250054495</data:x1>
					<data:x2>-1.0108111250054495</data:x2>
					<data:x3>0.0</data:x3>
					<data:x4>0.0</data:x4>
				</row>
				<row>
					<data:y>0</data:y>
					<data:x1>-0.9893045053244826</data:x1>
					<data:x2>0.9893045053244826</data:x2>
					<data:x3>0.0</data:x3>
					<data:x4>0.0</data:x4>
				</row>
				<row>
					<data:y>1</data:y>
					<data:x1>-0.9893045053244826</data:x1>
					<data:x2>0.9893045053244826</data:x2>
					<data:x3>0.0</data:x3>
					<data:x4>0.0</data:x4>
				</row>
				<row>
					<data:y>0</data:y>
					<data:x1>-0.9893045053244826</data:x1>
					<data:x2>0.9893045053244826</data:x2>
					<data:x3>0.0</data:x3>
					<data:x4>0.0</data:x4>
				</row>
				<row>
					<data:y>0</data:y>
					<data:x1>-0.9893045053244826</data:x1>
					<data:x2>0.9893045053244826</data:x2>
					<data:x3>0.0</data:x3>
					<data:x4>0.0</data:x4>
				</row>
				<row>
					<data:y>0</data:y>
					<data:x1>-0.9893045053244826</data:x1>
					<data:x2>0.9893045053244826</data:x2>
					<data:x3>0.0</data:x3>
					<data:x4>0.0</data:x4>
				</row>
				<row>
					<data:y>0</data:y>
					<data:x1>-0.9893045053244826</data:x1>
					<data:x2>0.9893045053244826</data:x2>
					<data:x3>0.0</data:x3>
					<data:x4>0.0</data:x4>
				</row>
				<row>
					<data:y>0</data:y>
					<data:x1>-0.9893045053244826</data:x1>
					<data:x2>0.9893045053244826</data:x2>
					<data:x3>0.0</data:x3>
					<data:x4>0.0</data:x4>
				</row>
				<row>
					<data:y>0</data:y>
					<data:x1>-0.9893045053244826</data:x1>
					<data:x2>0.9893045053244826</data:x2>
					<data:x3>0.0</data:x3>
					<data:x4>0.0</data:x4>
				</row>
				<row>
					<data:y>1</data:y>
					<data:x1>-0.9893045053244826</data:x1>
					<data:x2>0.9893045053244826</data:x2>
					<data:x3>0.0</data:x3>
					<data:x4>0.0</data:x4>
				</row>
				<row>
					<data:y>1</data:y>
					<data:x1>-0.9893045053244826</data:x1>
					<data:x2>0.9893045053244826</data:x2>
					<data:x3>0.0</data:x3>
					<data:x4>0.0</data:x4>
				</row>
				<row>
					<data:y>0</data:y>
					<data:x1>-0.9893045053244826</data:x1>
					<data:x2>0.9893045053244826</data:x2>
					<data:x3>0.0</data:x3>
					<data:x4>0.0</data:x4>
				</row>
				<row>
					<data:y>1</data:y>
					<data:x1>1.0108111250054495</data:x1>
					<data:x2>-1.0108111250054495</data:x2>
					<data:x3>0.0</data:x3>
					<data:x4>0.0</data:x4>
				</row>
				<row>
					<data:y>1</data:y>
					<data:x1>1.0108111250054495</data:x1>
					<data:x2>-1.0108111250054495</data:x2>
					<data:x3>0.0</data:x3>
					<data:x4>0.0</data:x4>
				</row>
				<row>
					<data:y>1</data:y>
					<data:x1>1.0108111250054495</data:x1>
					<data:x2>-1.0108111250054495</data:x2>
					<data:x3>0.0</data:x3>
					<data:x4>0.0</data:x4>
				</row>
				<row>
					<data:y>1</data:y>
					<data:x1>-0.9893045053244826</data:x1>
					<data:x2>0.9893045053244826</data:x2>
					<data:x3>0.0</data:x3>
					<data:x4>0.0</data:x4>
				</row>
				<row>
					<data:y>1</data:y>
					<data:x1>1.0108111250054495</data:x1>
					<data:x2>-1.0108111250054495</data:x2>
					<data:x3>0.0</data:x3>
					<data:x4>0.0</data:x4>
				</row>
				<row>
					<data:y>1</data:y>
					<data:x1>1.0108111250054495</data:x1>
					<data:x2>-1.0108111250054495</data:x2>
					<data:x3>0.0</data:x3>
					<data:x4>0.0</data:x4>
				</row>
				<row>
					<data:y>0</data:y>
					<data:x1>-0.9893045053244826</data:x1>
					<data:x2>0.9893045053244826</data:x2>
					<data:x3>0.0</data:x3>
					<data:x4>0.0</data:x4>
				</row>
				<row>
					<data:y>1</data:y>
					<data:x1>1.0108111250054495</data:x1>
					<data:x2>-1.0108111250054495</data:x2>
					<data:x3>0.0</data:x3>
					<data:x4>0.0</data:x4>
				</row>
				<row>
					<data:y>0</data:y>
					<data:x1>-0.9893045053244826</data:x1>
					<data:x2>0.9893045053244826</data:x2>
					<data:x3>0.0</data:x3>
					<data:x4>0.0</data:x4>
				</row>
				<row>
					<data:y>1</data:y>
					<data:x1>1.0108111250054495</data:x1>
					<data:x2>-1.0108111250054495</data:x2>
					<data:x3>0.0</data:x3>
					<data:x4>0.0</data:x4>
				</row>
				<row>
					<data:y>0</data:y>
					<data:x1>-0.9893045053244826</data:x1>
					<data:x2>0.9893045053244826</data:x2>
					<data:x3>0.0</data:x3>
					<data:x4>0.0</data:x4>
				</row>
				<row>
					<data:y>1</data:y>
					<data:x1>1.0108111250054495</data:x1>
					<data:x2>-1.0108111250054495</data:x2>
					<data:x3>0.0</data:x3>
					<data:x4>0.0</data:x4>
				</row>
				<row>
					<data:y>0</data:y>
					<data:x1>-0.9893045053244826</data:x1>
					<data:x2>0.9893045053244826</data:x2>
					<data:x3>0.0</data:x3>
					<data:x4>0.0</data:x4>
				</row>
				<row>
					<data:y>0</data:y>
					<data:x1>-0.9893045053244826</data:x1>
					<data:x2>0.9893045053244826</data:x2>
					<data:x3>0.0</data:x3>
					<data:x4>0.0</data:x4>
				</row>
				<row>
					<data:y>1</data:y>
					<data:x1>1.0108111250054495</data:x1>
					<data:x2>-1.0108111250054495</data:x2>
					<data:x3>0.0</data:x3>
					<data:x4>0.0</data:x4>
				</row>
				<row>
					<data:y>1</data:y>
					<data:x1>1.0108111250054495</data:x1>
					<data:x2>-1.0108111250054495</data:x2>
					<data:x3>0.0</data:x3>
					<data:x4>0.0</data:x4>
				</row>
				<row>
					<data:y>1</data:y>
					<data:x1>-0.9893045053244826</data:x1>
					<data:x2>0.9893045053244826</data:x2>
					<data:x3>0.0</data:x3>
					<data:x4>0.0</data:x4>
				</row>
				<row>
					<data:y>1</data:y>
					<data:x1>1.0108111250054495</data:x1>
					<data:x2>-1.0108111250054495</data:x2>
					<data:x3>0.0</data:x3>
					<data:x4>0.0</data:x4>
				</row>
				<row>
					<data:y>1</data:y>
					<data:x1>1.0108111250054495</data:x1>
					<data:x2>-1.0108111250054495</data:x2>
					<data:x3>0.0</data:x3>
					<data:x4>0.0</data:x4>
				</row>
				<row>
					<data:y>0</data:y>
					<data:x1>-0.9893045053244826</data:x1>
					<data:x2>0.9893045053244826</data:x2>
					<data:x3>0.0</data:x3>
					<data:x4>0.0</data:x4>
				</row>
				<row>
					<data:y>0</data:y>
					<data:x1>-0.9893045053244826</data:x1>
					<data:x2>0.9893045053244826</data:x2>
					<data:x3>0.0</data:x3>
					<data:x4>0.0</data:x4>
				</row>
				<row>
					<data:y>1</data:y>
					<data:x1>1.0108111250054495</data:x1>
					<data:x2>-1.0108111250054495</data:x2>
					<data:x3>0.0</data:x3>
					<data:x4>0.0</data:x4>
				</row>
				<row>
					<data:y>1</data:y>
					<data:x1>-0.9893045053244826</data:x1>
					<data:x2>0.9893045053244826</data:x2>
					<data:x3>0.0</data:x3>
					<data:x4>0.0</data:x4>
				</row>
				<row>
					<data:y>0</data:y>
					<data:x1>-0.9893045053244826</data:x1>
					<data:x2>0.9893045053244826</data:x2>
					<data:x3>0.0</data:x3>
					<data:x4>0.0</data:x4>
				</row>
				<row>
					<data:y>0</data:y>
					<data:x1>-0.9893045053244826</data:x1>
					<data:x2>0.9893045053244826</data:x2>
					<data:x3>0.0</data:x3>
					<data:x4>0.0</data:x4>
				</row>
				<row>
					<data:y>1</data:y>
					<data:x1>1.0108111250054495</data:x1>
					<data:x2>-1.0108111250054495</data:x2>
					<data:x3>0.0</data:x3>
					<data:x4>0.0</data:x4>
				</row>
				<row>
					<data:y>1</data:y>
					<data:x1>-0.9893045053244826</data:x1>
					<data:x2>0.9893045053244826</data:x2>
					<data:x3>0.0</data:x3>
					<data:x4>0.0</data:x4>
				</row>
				<row>
					<data:y>1</data:y>
					<data:x1>1.0108111250054495</data:x1>
					<data:x2>-1.0108111250054495</data:x2>
					<data:x3>0.0</data:x3>
					<data:x4>0.0</data:x4>
				</row>
				<row>
					<data:y>0</data:y>
					<data:x1>-0.9893045053244826</data:x1>
					<data:x2>0.9893045053244826</data:x2>
					<data:x3>0.0</data:x3>
					<data:x4>0.0</data:x4>
				</row>
				<row>
					<data:y>1</data:y>
					<data:x1>1.0108111250054495</data:x1>
					<data:x2>-1.0108111250054495</data:x2>
					<data:x3>0.0</data:x3>
					<data:x4>0.0</data:x4>
				</row>
				<row>
					<data:y>0</data:y>
					<data:x1>-0.9893045053244826</data:x1>
					<data:x2>0.9893045053244826</data:x2>
					<data:x3>0.0</data:x3>
					<data:x4>0.0</data:x4>
				</row>
				<row>
					<data:y>0</data:y>
					<data:x1>-0.9893045053244826</data:x1>
					<data:x2>0.9893045053244826</data:x2>
					<data:x3>0.0</data:x3>
					<data:x4>0.0</data:x4>
				</row>
				<row>
					<data:y>1</data:y>
					<data:x1>1.0108111250054495</data:x1>
					<data:x2>-1.0108111250054495</data:x2>
					<data:x3>0.0</data:x3>
					<data:x4>0.0</data:x4>
				</row>
				<row>
					<data:y>0</data:y>
					<data:x1>-0.9893045053244826</data:x1>
					<data:x2>0.9893045053244826</data:x2>
					<data:x3>0.0</data:x3>
					<data:x4>0.0</data:x4>
				</row>
				<row>
					<data:y>0</data:y>
					<data:x1>-0.9893045053244826</data:x1>
					<data:x2>0.9893045053244826</data:x2>
					<data:x3>0.0</data:x3>
					<data:x4>0.0</data:x4>
				</row>
				<row>
					<data:y>1</data:y>
					<data:x1>1.0108111250054495</data:x1>
					<data:x2>-1.0108111250054495</data:x2>
					<data:x3>0.0</data:x3>
					<data:x4>0.0</data:x4>
				</row>
				<row>
					<data:y>0</data:y>
					<data:x1>-0.9893045053244826</data:x1>
					<data:x2>0.9893045053244826</data:x2>
					<data:x3>0.0</data:x3>
					<data:x4>0.0</data:x4>
				</row>
				<row>
					<data:y>0</data:y>
					<data:x1>-0.9893045053244826</data:x1>
					<data:x2>0.9893045053244826</data:x2>
					<data:x3>0.0</data:x3>
					<data:x4>0.0</data:x4>
				</row>
				<row>
					<data:y>0</data:y>
					<data:x1>-0.9893045053244826</data:x1>
					<data:x2>0.9893045053244826</data:x2>
					<data:x3>0.0</data:x3>
					<data:x4>0.0</data:x4>
				</row>
				<row>
					<data:y>1</data:y>
					<data:x1>1.0108111250054495</data:x1>
					<data:x2>-1.0108111250054495</data:x2>
					<data:x3>0.0</data:x3>
					<data:x4>0.0</data:x4>
				</row>
				<row>
					<data:y>1</data:y>
					<data:x1>-0.9893045053244826</data:x1>
					<data:x2>0.9893045053244826</data:x2>
					<data:x3>0.0</data:x3>
					<data:x4>0.0</data:x4>
				</row>
				<row>
					<data:y>0</data:y>
					<data:x1>-0.9893045053244826</data:x1>
					<data:x2>0.9893045053244826</data:x2>
					<data:x3>0.0</data:x3>
					<data:x4>0.0</data:x4>
				</row>
				<row>
					<data:y>1</data:y>
					<data:x1>1.0108111250054495</data:x1>
					<data:x2>-1.0108111250054495</data:x2>
					<data:x3>0.0</data:x3>
					<data:x4>0.0</data:x4>
				</row>
				<row>
					<data:y>0</data:y>
					<data:x1>-0.9893045053244826</data:x1>
					<data:x2>0.9893045053244826</data:x2>
					<data:x3>0.0</data:x3>
					<data:x4>0.0</data:x4>
				</row>
				<row>
					<data:y>0</data:y>
					<data:x1>-0.9893045053244826</data:x1>
					<data:x2>0.9893045053244826</data:x2>
					<data:x3>0.0</data:x3>
					<data:x4>0.0</data:x4>
				</row>
				<row>
					<data:y>0</data:y>
					<data:x1>-0.9893045053244826</data:x1>
					<data:x2>0.9893045053244826</data:x2>
					<data:x3>0.0</data:x3>
					<data:x4>0.0</data:x4>
				</row>
				<row>
					<data:y>1</data:y>
					<data:x1>1.0108111250054495</data:x1>
					<data:x2>-1.0108111250054495</data:x2>
					<data:x3>0.0</data:x3>
					<data:x4>0.0</data:x4>
				</row>
				<row>
					<data:y>1</data:y>
					<data:x1>-0.9893045053244826</data:x1>
					<data:x2>0.9893045053244826</data:x2>
					<data:x3>0.0</data:x3>
					<data:x4>0.0</data:x4>
				</row>
				<row>
					<data:y>0</data:y>
					<data:x1>-0.9893045053244826</data:x1>
					<data:x2>0.9893045053244826</data:x2>
					<data:x3>0.0</data:x3>
					<data:x4>0.0</data:x4>
				</row>
				<row>
					<data:y>0</data:y>
					<data:x1>-0.9893045053244826</data:x1>
					<data:x2>0.9893045053244826</data:x2>
					<data:x3>0.0</data:x3>
					<data:x4>0.0</data:x4>
				</row>
				<row>
					<data:y>0</data:y>
					<data:x1>-0.9893045053244826</data:x1>
					<data:x2>0.9893045053244826</data:x2>
					<data:x3>0.0</data:x3>
					<data:x4>0.0</data:x4>
				</row>
				<row>
					<data:y>1</data:y>
					<data:x1>1.0108111250054495</data:x1>
					<data:x2>-1.0108111250054495</data:x2>
					<data:x3>0.0</data:x3>
					<data:x4>0.0</data:x4>
				</row>
				<row>
					<data:y>0</data:y>
					<data:x1>-0.9893045053244826</data:x1>
					<data:x2>0.9893045053244826</data:x2>
					<data:x3>0.0</data:x3>
					<data:x4>0.0</data:x4>
				</row>
				<row>
					<data:y>1</data:y>
					<data:x1>-0.9893045053244826</data:x1>
					<data:x2>0.9893045053244826</data:x2>
					<data:x3>0.0</data:x3>
					<data:x4>0.0</data:x4>
				</row>
				<row>
					<data:y>0</data:y>
					<data:x1>-0.9893045053244826</data:x1>
					<data:x2>0.9893045053244826</data:x2>
					<data:x3>0.0</data:x3>
					<data:x4>0.0</data:x4>
				</row>
				<row>
					<data:y>0</data:y>
					<data:x1>-0.9893045053244826</data:x1>
					<data:x2>0.9893045053244826</data:x2>
					<data:x3>0.0</data:x3>
					<data:x4>0.0</data:x4>
				</row>
				<row>
					<data:y>0</data:y>
					<data:x1>-0.9893045053244826</data:x1>
					<data:x2>0.9893045053244826</data:x2>
					<data:x3>0.0</data:x3>
					<data:x4>0.0</data:x4>
				</row>
				<row>
					<data:y>0</data:y>
					<data:x1>-0.9893045053244826</data:x1>
					<data:x2>0.9893045053244826</data:x2>
					<data:x3>0.0</data:x3>
					<data:x4>0.0</data:x4>
				</row>
				<row>
					<data:y>0</data:y>
					<data:x1>-0.9893045053244826</data:x1>
					<data:x2>0.9893045053244826</data:x2>
					<data:x3>0.0</data:x3>
					<data:x4>0.0</data:x4>
				</row>
				<row>
					<data:y>0</data:y>
					<data:x1>-0.9893045053244826</data:x1>
					<data:x2>0.9893045053244826</data:x2>
					<data:x3>0.0</data:x3>
					<data:x4>0.0</data:x4>
				</row>
				<row>
					<data:y>1</data:y>
					<data:x1>1.0108111250054495</data:x1>
					<data:x2>-1.0108111250054495</data:x2>
					<data:x3>0.0</data:x3>
					<data:x4>0.0</data:x4>
				</row>
				<row>
					<data:y>1</data:y>
					<data:x1>1.0108111250054495</data:x1>
					<data:x2>-1.0108111250054495</data:x2>
					<data:x3>0.0</data:x3>
					<data:x4>0.0</data:x4>
				</row>
				<row>
					<data:y>0</data:y>
					<data:x1>-0.9893045053244826</data:x1>
					<data:x2>0.9893045053244826</data:x2>
					<data:x3>0.0</data:x3>
					<data:x4>0.0</data:x4>
				</row>
				<row>
					<data:y>0</data:y>
					<data:x1>-0.9893045053244826</data:x1>
					<data:x2>0.9893045053244826</data:x2>
					<data:x3>0.0</data:x3>
					<data:x4>0.0</data:x4>
				</row>
				<row>
					<data:y>1</data:y>
					<data:x1>1.0108111250054495</data:x1>
					<data:x2>-1.0108111250054495</data:x2>
					<data:x3>0.0</data:x3>
					<data:x4>0.0</data:x4>
				</row>
				<row>
					<data:y>1</data:y>
					<data:x1>1.0108111250054495</data:x1>
					<data:x2>-1.0108111250054495</data:x2>
					<data:x3>0.0</data:x3>
					<data:x4>0.0</data:x4>
				</row>
				<row>
					<data:y>1</data:y>
					<data:x1>1.0108111250054495</data:x1>
					<data:x2>-1.0108111250054495</data:x2>
					<data:x3>0.0</data:x3>
					<data:x4>0.0</data:x4>
				</row>
				<row>
					<data:y>1</data:y>
					<data:x1>1.0108111250054495</data:x1>
					<data:x2>-1.0108111250054495</data:x2>
					<data:x3>0.0</data:x3>
					<data:x4>0.0</data:x4>
				</row>
				<row>
					<data:y>1</data:y>
					<data:x1>1.0108111250054495</data:x1>
					<data:x2>-1.0108111250054495</data:x2>
					<data:x3>0.0</data:x3>
					<data:x4>0.0</data:x4>
				</row>
				<row>
					<data:y>1</data:y>
					<data:x1>1.0108111250054495</data:x1>
					<data:x2>-1.0108111250054495</data:x2>
					<data:x3>0.0</data:x3>
					<data:x4>0.0</data:x4>
				</row>
				<row>
					<data:y>1</data:y>
					<data:x1>1.0108111250054495</data:x1>
					<data:x2>-1.0108111250054495</data:x2>
					<data:x3>0.0</data:x3>
					<data:x4>0.0</data:x4>
				</row>
				<row>
					<data:y>1</data:y>
					<data:x1>1.0108111250054495</data:x1>
					<data:x2>-1.0108111250054495</data:x2>
					<data:x3>0.0</data:x3>
					<data:x4>0.0</data:x4>
				</row>
				<row>
					<data:y>1</data:y>
					<data:x1>1.0108111250054495</data:x1>
					<data:x2>-1.0108111250054495</data:x2>
					<data:x3>0.0</data:x3>
					<data:x4>0.0</data:x4>
				</row>
				<row>
					<data:y>1</data:y>
					<data:x1>1.0108111250054495</data:x1>
					<data:x2>-1.0108111250054495</data:x2>
					<data:x3>0.0</data:x3>
					<data:x4>0.0</data:x4>
				</row>
				<row>
					<data:y>1</data:y>
					<data:x1>1.0108111250054495</data:x1>
					<data:x2>-1.0108111250054495</data:x2>
					<data:x3>0.0</data:x3>
					<data:x4>0.0</data:x4>
				</row>
				<row>
					<data:y>0</data:y>
					<data:x1>-0.9893045053244826</data:x1>
					<data:x2>0.9893045053244826</data:x2>
					<data:x3>0.0</data:x3>
					<data:x4>0.0</data:x4>
				</row>
				<row>
					<data:y>1</data:y>
					<data:x1>1.0108111250054495</data:x1>
					<data:x2>-1.0108111250054495</data:x2>
					<data:x3>0.0</data:x3>
					<data:x4>0.0</data:x4>
				</row>
				<row>
					<data:y>1</data:y>
					<data:x1>1.0108111250054495</data:x1>
					<data:x2>-1.0108111250054495</data:x2>
					<data:x3>0.0</data:x3>
					<data:x4>0.0</data:x4>
				</row>
				<row>
					<data:y>1</data:y>
					<data:x1>1.0108111250054495</data:x1>
					<data:x2>-1.0108111250054495</data:x2>
					<data:x3>0.0</data:x3>
					<data:x4>0.0</data:x4>
				</row>
				<row>
					<data:y>0</data:y>
					<data:x1>-0.9893045053244826</data:x1>
					<data:x2>0.9893045053244826</data:x2>
					<data:x3>0.0</data:x3>
					<data:x4>0.0</data:x4>
				</row>
				<row>
					<data:y>1</data:y>
					<data:x1>1.0108111250054495</data:x1>
					<data:x2>-1.0108111250054495</data:x2>
					<data:x3>0.0</data:x3>
					<data:x4>0.0</data:x4>
				</row>
				<row>
					<data:y>1</data:y>
					<data:x1>1.0108111250054495</data:x1>
					<data:x2>-1.0108111250054495</data:x2>
					<data:x3>0.0</data:x3>
					<data:x4>0.0</data:x4>
				</row>
				<row>
					<data:y>0</data:y>
					<data:x1>-0.9893045053244826</data:x1>
					<data:x2>0.9893045053244826</data:x2>
					<data:x3>0.0</data:x3>
					<data:x4>0.0</data:x4>
				</row>
				<row>
					<data:y>1</data:y>
					<data:x1>1.0108111250054495</data:x1>
					<data:x2>-1.0108111250054495</data:x2>
					<data:x3>0.0</data:x3>
					<data:x4>0.0</data:x4>
				</row>
				<row>
					<data:y>0</data:y>
					<data:x1>-0.9893045053244826</data:x1>
					<data:x2>0.9893045053244826</data:x2>
					<data:x3>0.0</data:x3>
					<data:x4>0.0</data:x4>
				</row>
				<row>
					<data:y>0</data:y>
					<data:x1>-0.9893045053244826</data:x1>
					<data:x2>0.9893045053244826</data:x2>
					<data:x3>0.0</data:x3>
					<data:x4>0.0</data:x4>
				</row>
				<row>
					<data:y>1</data:y>
					<data:x1>1.0108111250054495</data:x1>
					<data:x2>-1.0108111250054495</data:x2>
					<data:x3>0.0</data:x3>
					<data:x4>0.0</data:x4>
				</row>
				<row>
					<data:y>0</data:y>
					<data:x1>-0.9893045053244826</data:x1>
					<data:x2>0.9893045053244826</data:x2>
					<data:x3>0.0</data:x3>
					<data:x4>0.0</data:x4>
				</row>
				<row>
					<data:y>0</data:y>
					<data:x1>-0.9893045053244826</data:x1>
					<data:x2>0.9893045053244826</data:x2>
					<data:x3>0.0</data:x3>
					<data:x4>0.0</data:x4>
				</row>
				<row>
					<data:y>1</data:y>
					<data:x1>1.0108111250054495</data:x1>
					<data:x2>-1.0108111250054495</data:x2>
					<data:x3>0.0</data:x3>
					<data:x4>0.0</data:x4>
				</row>
				<row>
					<data:y>1</data:y>
					<data:x1>1.0108111250054495</data:x1>
					<data:x2>-1.0108111250054495</data:x2>
					<data:x3>0.0</data:x3>
					<data:x4>0.0</data:x4>
				</row>
				<row>
					<data:y>1</data:y>
					<data:x1>-0.9893045053244826</data:x1>
					<data:x2>0.9893045053244826</data:x2>
					<data:x3>0.0</data:x3>
					<data:x4>0.0</data:x4>
				</row>
				<row>
					<data:y>1</data:y>
					<data:x1>1.0108111250054495</data:x1>
					<data:x2>-1.0108111250054495</data:x2>
					<data:x3>0.0</data:x3>
					<data:x4>0.0</data:x4>
				</row>
				<row>
					<data:y>1</data:y>
